{"learner":{"attributes":{"scikit_learn":"{\"_estimator_type\": \"classifier\"}"},"feature_names":[],"feature_types":[],"gradient_booster":{"model":{"gbtree_model_param":{"num_parallel_tree":"1","num_trees":"150"},"iteration_indptr":[0,1,2,3,4,5,6,7,8,9,10,11,12,13,14,15,16,17,18,19,20,21,22,23,24,25,26,27,28,29,30,31,32,33,34,35,36,37,38,39,40,41,42,43,44,45,46,47,48,49,50,51,52,53,54,55,56,57,58,59,60,61,62,63,64,65,66,67,68,69,70,71,72,73,74,75,76,77,78,79,80,81,82,83,84,85,86,87,88,89,90,91,92,93,94,95,96,97,98,99,100,101,102,103,104,105,106,107,108,109,110,111,112,113,114,115,116,117,118,119,120,121,122,123,124,125,126,127,128,129,130,131,132,133,134,135,136,137,138,139,140,141,142,143,144,145,146,147,148,149,150],"tree_info":[0,0,0,0,0,0,0,0,0,0,0,0,0,0,0,0,0,0,0,0,0,0,0,0,0,0,0,0,0,0,0,0,0,0,0,0,0,0,0,0,0,0,0,0,0,0,0,0,0,0,0,0,0,0,0,0,0,0,0,0,0,0,0,0,0,0,0,0,0,0,0,0,0,0,0,0,0,0,0,0,0,0,0,0,0,0,0,0,0,0,0,0,0,0,0,0,0,0,0,0,0,0,0,0,0,0,0,0,0,0,0,0,0,0,0,0,0,0,0,0,0,0,0,0,0,0,0,0,0,0,0,0,0,0,0,0,0,0,0,0,0,0,0,0,0,0,0,0,0,0],"trees":[{"base_weights":[-1.1976057E-2,6.776725E-2,-8.2335126E-1,-2.0359443E-1,3.2465547E-1,-2.1084188E-2,-1.6448307E-1,-1.1122325E-4,-9.7213525E-1,4.5485634E-1,-5.650394E-2,-6.929953E-2,2.8157441E-2,-1.6646296E-1,-3.6096916E-2,9.286831E-2,1.722089E-2],"categories":[],"categories_nodes":[],"categories_segments":[],"categories_sizes":[],"default_left":[0,0,0,0,0,0,0,0,0,0,0,0,0,0,0,0,0],"id":0,"left_children":[1,3,5,7,9,-1,-1,11,13,15,-1,-1,-1,-1,-1,-1,-1],"loss_changes":[1.2583344E1,1.2350024E1,5.776181E0,1.3357199E1,9.638904E0,0E0,0E0,9.53962E0,4.403633E0,7.627163E0,0E0,0E0,0E0,0E0,0E0,0E0,0E0],"parents":[2147483647,0,0,1,1,2,2,3,3,4,4,7,7,8,8,9,9],"right_children":[2,4,6,8,10,-1,-1,12,14,16,-1,-1,-1,-1,-1,-1,-1],"split_conditions":[1.6700453E0,-2.9352538E-2,2.6817432E-1,2.7542743E-1,1.7372817E0,-2.1084188E-2,-1.6448307E-1,-7.984667E-1,6.324845E-1,4.95975E-2,-5.650394E-2,-6.929953E-2,2.8157441E-2,-1.6646296E-1,-3.6096916E-2,9.286831E-2,1.722089E-2],"split_indices":[33,83,43,6,27,0,0,55,14,20,0,0,0,0,0,0,0],"split_type":[0,0,0,0,0,0,0,0,0,0,0,0,0,0,0,0,0],"sum_hessian":[1.9145216E2,1.7504198E2,1.6410187E1,8.50346E1,9.0007385E1,8.205093E0,8.205093E0,6.812714E1,1.6907465E1,7.7824066E1,1.218332E1,1.9393856E1,4.873328E1,9.696928E0,7.2105365E0,3.7544518E1,4.027955E1],"tree_param":{"num_deleted":"0","num_feature":"106","num_nodes":"17","size_leaf_vector":"1"}},{"base_weights":[5.168001E-3,1.5634663E-1,-3.544456E-1,4.296574E-1,-9.148865E-2,7.608891E-2,-5.132265E-1,1.8147983E-1,1.0308694E0,-1.0944495E-1,7.806673E-2,-7.8221744E-1,1.0057383E-2,2.9466047E-3,1.0656421E-1,1.7880066E-1,6.988635E-2,2.7606674E-2,-8.4149525E-2,-1.5482461E-1,-3.5268106E-2,6.0234495E-2,-4.3929886E-2],"categories":[],"categories_nodes":[],"categories_segments":[],"categories_sizes":[],"default_left":[0,0,0,0,0,0,0,0,0,0,0,0,0,0,0,0,0,0,0,0,0,0,0],"id":1,"left_children":[1,3,5,7,9,-1,11,13,15,-1,17,19,21,-1,-1,-1,-1,-1,-1,-1,-1,-1,-1],"loss_changes":[1.0416203E1,9.238966E0,9.200691E0,9.348166E0,1.0116028E1,0E0,7.042221E0,5.11366E0,2.7505474E0,0E0,7.2396665E0,7.5947475E0,3.4615142E0,0E0,0E0,0E0,0E0,0E0,0E0,0E0,0E0,0E0,0E0],"parents":[2147483647,0,0,1,1,2,2,3,3,4,4,6,6,7,7,8,8,10,10,11,11,12,12],"right_children":[2,4,6,8,10,-1,12,14,16,-1,18,20,22,-1,-1,-1,-1,-1,-1,-1,-1,-1,-1],"split_conditions":[6.69062E-1,-1.8729647E-1,-1.440922E0,1.3748193E-1,-1.0601918E-1,7.608891E-2,1.3642577E0,6.3381445E-1,4.7556484E-1,-1.0944495E-1,1.2093755E0,-2.4949537E-1,-7.5721353E-1,2.9466047E-3,1.0656421E-1,1.7880066E-1,6.988635E-2,2.7606674E-2,-8.4149525E-2,-1.5482461E-1,-3.5268106E-2,6.0234495E-2,-4.3929886E-2],"split_indices":[30,37,48,41,42,0,30,22,7,0,58,83,38,0,0,0,0,0,0,0,0,0,0],"split_type":[0,0,0,0,0,0,0,0,0,0,0,0,0,0,0,0,0,0,0,0,0,0,0],"sum_hessian":[1.8993948E2,1.3431702E2,5.5622467E1,6.3718555E1,7.0598465E1,7.196449E0,4.8426018E1,4.6140255E1,1.75783E1,1.1441037E1,5.9157425E1,3.1783947E1,1.664207E1,3.8717457E1,7.422799E0,7.42828E0,1.0150022E1,5.0200054E1,8.95737E0,1.4672966E1,1.7110981E1,7.181645E0,9.460425E0],"tree_param":{"num_deleted":"0","num_feature":"106","num_nodes":"23","size_leaf_vector":"1"}},{"base_weights":[1.7079864E-2,8.277694E-2,-6.969572E-1,-1.0171319E-1,1.3330331E-1,-2.2649629E-2,-1.384221E-1,-7.408051E-2,2.0384307E-1,5.527282E-2,-6.3107302E-3],"categories":[],"categories_nodes":[],"categories_segments":[],"categories_sizes":[],"default_left":[0,0,0,0,0,0,0,0,0,0,0],"id":2,"left_children":[1,3,5,-1,7,-1,-1,-1,9,-1,-1],"loss_changes":[9.0294E0,8.379083E0,3.4074678E0,0E0,9.043118E0,0E0,0E0,0E0,1.0305538E1,0E0,0E0],"parents":[2147483647,0,0,1,1,2,2,4,4,8,8],"right_children":[2,4,6,-1,8,-1,-1,-1,10,-1,-1],"split_conditions":[1.6700453E0,-1.632025E0,6.5616894E-1,-1.0171319E-1,-8.578651E-1,-2.2649629E-2,-1.384221E-1,-7.408051E-2,-1.5884092E-2,5.527282E-2,-6.3107302E-3],"split_indices":[33,70,98,0,85,0,0,0,72,0,0],"split_type":[0,0,0,0,0,0,0,0,0,0,0],"sum_hessian":[1.9156229E2,1.763599E2,1.5202391E1,8.169675E0,1.6819023E2,7.9667797E0,7.2356105E0,1.36599655E1,1.5453026E2,7.701226E1,7.7518E1],"tree_param":{"num_deleted":"0","num_feature":"106","num_nodes":"11","size_leaf_vector":"1"}},{"base_weights":[-3.691664E-2,1.623279E-1,-2.255833E-1,4.4954744E-1,-6.529726E-2,-4.654643E-1,1.3379847E-1,8.1880003E-1,5.103794E-2,-3.0217153E-1,4.180467E-1,-1.7561014E-1,-1.0656611E0,4.587193E-1,-6.7597724E-2,1.5942036E-1,4.150278E-2,-7.109666E-2,5.633624E-2,-1.6752372E-3,-1.08390056E-1,-3.0592347E-3,9.3129314E-2,-8.3190806E-2,3.248216E-2,-6.0874794E-2,-1.9237839E-1,-2.2340793E-2,1.0094095E-1],"categories":[],"categories_nodes":[],"categories_segments":[],"categories_sizes":[],"default_left":[0,0,0,0,0,0,0,0,0,0,0,0,0,0,0,0,0,0,0,0,0,0,0,0,0,0,0,0,0],"id":3,"left_children":[1,3,5,7,9,11,13,15,17,19,21,23,25,27,-1,-1,-1,-1,-1,-1,-1,-1,-1,-1,-1,-1,-1,-1,-1],"loss_changes":[7.419742E0,6.3289275E0,8.843195E0,6.1490173E0,6.3093715E0,1.0343202E1,9.586416E0,4.663722E0,6.112931E0,6.3106484E0,2.9652703E0,1.0073446E1,4.8685074E0,7.318053E0,0E0,0E0,0E0,0E0,0E0,0E0,0E0,0E0,0E0,0E0,0E0,0E0,0E0,0E0,0E0],"parents":[2147483647,0,0,1,1,2,2,3,3,4,4,5,5,6,6,7,7,8,8,9,9,10,10,11,11,12,12,13,13],"right_children":[2,4,6,8,10,12,14,16,18,20,22,24,26,28,-1,-1,-1,-1,-1,-1,-1,-1,-1,-1,-1,-1,-1,-1,-1],"split_conditions":[-1.5884092E-2,-5.279543E-1,-6.421171E-2,1.1748107E-1,1.3028983E0,-5.962588E-1,1.6722504E0,-2.3603726E-2,-4.487593E-1,5.8708645E-2,-3.835772E-1,8.7069675E-2,1.7580667E-1,-2.4874486E-2,-6.7597724E-2,1.5942036E-1,4.150278E-2,-7.109666E-2,5.633624E-2,-1.6752372E-3,-1.08390056E-1,-3.0592347E-3,9.3129314E-2,-8.3190806E-2,3.248216E-2,-6.0874794E-2,-1.9237839E-1,-2.2340793E-2,1.0094095E-1],"split_indices":[72,102,101,68,103,23,103,53,51,102,18,39,9,77,0,0,0,0,0,0,0,0,0,0,0,0,0,0,0],"split_type":[0,0,0,0,0,0,0,0,0,0,0,0,0,0,0,0,0,0,0,0,0,0,0,0,0,0,0,0,0],"sum_hessian":[1.9523946E2,9.476786E1,1.0047159E2,4.1662327E1,5.3105534E1,6.0243313E1,4.022828E1,2.0947298E1,2.0715027E1,3.6029926E1,1.7075605E1,4.1608463E1,1.8634853E1,2.7770163E1,1.2458115E1,9.109409E0,1.1837889E1,7.904171E0,1.2810856E1,2.5156998E1,1.0872931E1,7.917115E0,9.15849E0,1.9111824E1,2.2496637E1,1.0184545E1,8.450308E0,1.0431839E1,1.7338324E1],"tree_param":{"num_deleted":"0","num_feature":"106","num_nodes":"29","size_leaf_vector":"1"}},{"base_weights":[-3.2659555E-3,1.3472643E-1,-3.3878118E-1,-9.627027E-2,1.9270086E-1,-7.83845E-1,-1.897875E-3,9.405999E-2,1.1597524E-1,-1.0379696E0,-3.5336956E-2,8.585451E-2,-3.251127E-1,-3.5369173E-2,2.6086811E-2,-6.919712E-2,-1.6176718E-1,-8.5659504E-2,3.2104697E-2],"categories":[],"categories_nodes":[],"categories_segments":[],"categories_sizes":[],"default_left":[0,0,0,0,0,0,0,0,0,0,0,0,0,0,0,0,0,0,0],"id":4,"left_children":[1,3,5,-1,7,9,11,-1,13,15,-1,-1,17,-1,-1,-1,-1,-1,-1],"loss_changes":[9.070033E0,7.6064997E0,8.491884E0,0E0,5.7675757E0,2.6080122E0,8.000417E0,0E0,4.9467874E0,1.2612057E0,0E0,0E0,5.7635946E0,0E0,0E0,0E0,0E0,0E0,0E0],"parents":[2147483647,0,0,1,1,2,2,4,4,5,5,6,6,8,8,9,9,12,12],"right_children":[2,4,6,-1,8,10,12,-1,14,16,-1,-1,18,-1,-1,-1,-1,-1,-1],"split_conditions":[6.69062E-1,-1.3491831E0,-5.726568E-1,-9.627027E-2,-7.9311925E-1,5.0685245E-1,-4.9896532E-1,9.405999E-2,-7.40016E-1,-9.70155E-1,-3.5336956E-2,8.585451E-2,1.6926962E-1,-3.5369173E-2,2.6086811E-2,-6.919712E-2,-1.6176718E-1,-8.5659504E-2,3.2104697E-2],"split_indices":[30,74,101,0,101,57,83,0,77,94,0,0,68,0,0,0,0,0,0],"split_type":[0,0,0,0,0,0,0,0,0,0,0,0,0,0,0,0,0,0,0],"sum_hessian":[1.9347662E2,1.3730537E2,5.6171246E1,7.152018E0,1.3015335E2,2.3500557E1,3.267069E1,1.3743924E1,1.1640943E2,1.4595765E1,8.904792E0,9.67493E0,2.299576E1,2.2479145E1,9.393028E1,7.1462483E0,7.4495163E0,1.3865642E1,9.130117E0],"tree_param":{"num_deleted":"0","num_feature":"106","num_nodes":"19","size_leaf_vector":"1"}},{"base_weights":[4.6739825E-3,1.0454078E-1,-2.8294992E-1,2.4300241E-1,-3.612488E-1,-9.975255E-1,7.077719E-2,-8.429351E-2,3.1330463E-1,-6.7290473E-1,1.17754275E-2,-4.6741184E-2,-1.72777E-1,5.570572E-1,-3.8419384E-1,6.647105E-2,1.5768058E-3,-2.5235873E-2,-1.4555137E-1,1.7760828E-2,1.0403529E-1,-1.1288597E-1,1.9069107E-2],"categories":[],"categories_nodes":[],"categories_segments":[],"categories_sizes":[],"default_left":[0,0,0,0,0,0,0,0,0,0,0,0,0,0,0,0,0,0,0,0,0,0,0],"id":5,"left_children":[1,3,5,7,9,11,13,-1,15,17,-1,-1,-1,19,21,-1,-1,-1,-1,-1,-1,-1,-1],"loss_changes":[5.7035236E0,9.625745E0,1.3074825E1,7.8186126E0,5.0150976E0,3.8475533E0,7.9765534E0,0E0,7.717825E0,4.7521935E0,0E0,0E0,0E0,1.9804935E0,5.8409615E0,0E0,0E0,0E0,0E0,0E0,0E0,0E0,0E0],"parents":[2147483647,0,0,1,1,2,2,3,3,4,4,5,5,6,6,8,8,9,9,13,13,14,14],"right_children":[2,4,6,8,10,12,14,-1,16,18,-1,-1,-1,20,22,-1,-1,-1,-1,-1,-1,-1,-1],"split_conditions":[5.6551546E-1,8.77429E-1,-3.4204224E-1,-1.2699833E0,1.3642577E0,-3.8781506E-1,-2.7582887E-1,-8.429351E-2,2.0444562E-1,-7.6305896E-2,1.17754275E-2,-4.6741184E-2,-1.72777E-1,-2.5528368E-1,-1.984168E-1,6.647105E-2,1.5768058E-3,-2.5235873E-2,-1.4555137E-1,1.7760828E-2,1.0403529E-1,-1.1288597E-1,1.9069107E-2],"split_indices":[68,30,53,25,30,76,38,0,72,39,0,0,0,78,103,0,0,0,0,0,0,0,0],"split_type":[0,0,0,0,0,0,0,0,0,0,0,0,0,0,0,0,0,0,0,0,0,0,0],"sum_hessian":[1.9715376E2,1.4707248E2,5.0081287E1,1.1390563E2,3.316685E1,1.607345E1,3.4007835E1,7.1628566E0,1.06742775E2,1.9613384E1,1.3553467E1,7.6557326E0,8.417718E0,1.6436098E1,1.757174E1,5.859375E1,4.8149025E1,1.14120035E1,8.201381E0,7.8607492E0,8.575349E0,8.408E0,9.163738E0],"tree_param":{"num_deleted":"0","num_feature":"106","num_nodes":"23","size_leaf_vector":"1"}},{"base_weights":[-7.7050403E-3,7.195634E-2,-4.493613E-1,7.033879E-1,-2.7242705E-2,-8.2960165E-1,1.5994035E-2,1.4456773E-1,3.8431492E-1,-4.246448E-1,1.721418E-1,-3.4651965E-2,-1.3950926E-1,-0E0,8.5489415E-2,-1.0406974E-1,-1.7012225E-2,3.2563005E-2,-1.0497524E-1],"categories":[],"categories_nodes":[],"categories_segments":[],"categories_sizes":[],"default_left":[0,0,0,0,0,0,0,0,0,0,0,0,0,0,0,0,0,0,0],"id":6,"left_children":[1,3,5,7,9,11,-1,-1,13,15,17,-1,-1,-1,-1,-1,-1,-1,-1],"loss_changes":[6.872291E0,1.0388437E1,6.7985234E0,2.977933E0,1.1425992E1,2.8180933E0,0E0,0E0,1.9316685E0,5.813243E0,1.0122106E1,0E0,0E0,0E0,0E0,0E0,0E0,0E0,0E0],"parents":[2147483647,0,0,1,1,2,2,3,3,4,4,5,5,8,8,9,9,10,10],"right_children":[2,4,6,8,10,12,-1,-1,14,16,18,-1,-1,-1,-1,-1,-1,-1,-1],"split_conditions":[1.2885375E0,-7.981534E-1,1.6574663E0,-4.976055E-1,-6.1394244E-1,-3.0998906E-1,1.5994035E-2,1.4456773E-1,-5.7551097E-2,-6.04355E-1,2.1680698E0,-3.4651965E-2,-1.3950926E-1,-0E0,8.5489415E-2,-1.0406974E-1,-1.7012225E-2,3.2563005E-2,-1.0497524E-1],"split_indices":[33,45,47,88,103,6,0,0,76,55,69,0,0,0,0,0,0,0,0],"split_type":[0,0,0,0,0,0,0,0,0,0,0,0,0,0,0,0,0,0,0],"sum_hessian":[1.9233846E2,1.63465E2,2.8873465E1,2.1503864E1,1.4196114E2,1.7318804E1,1.1554662E1,7.1617846E0,1.4342079E1,4.7218872E1,9.4742256E1,7.4254966E0,9.893307E0,7.0713205E0,7.270758E0,1.7468073E1,2.97508E1,8.7304825E1,7.437428E0],"tree_param":{"num_deleted":"0","num_feature":"106","num_nodes":"19","size_leaf_vector":"1"}},{"base_weights":[1.0379891E-2,-7.916015E-2,6.751451E-2,-4.556586E-1,1.3093355E-1,-1.19849175E-1,4.755325E-2,2.852434E-1,-9.9449694E-2,1.2705427E-1,2.4641631E-2,-6.417855E-2,2.1801526E-2],"categories":[],"categories_nodes":[],"categories_segments":[],"categories_sizes":[],"default_left":[0,0,0,0,0,0,0,0,0,0,0,0,0],"id":7,"left_children":[1,-1,3,5,7,-1,-1,9,11,-1,-1,-1,-1],"loss_changes":[7.3195395E0,0E0,5.918863E0,9.362846E0,5.710868E0,0E0,0E0,5.5850706E0,8.013418E0,0E0,0E0,0E0,0E0],"parents":[2147483647,0,0,2,2,3,3,4,4,7,7,8,8],"right_children":[2,-1,4,6,8,-1,-1,10,12,-1,-1,-1,-1],"split_conditions":[-1.3902661E0,-7.916015E-2,-8.422563E-1,3.0341884E-1,2.4886876E-1,-1.19849175E-1,4.755325E-2,-1.1362032E0,-3.6178902E-1,1.2705427E-1,2.4641631E-2,-6.417855E-2,2.1801526E-2],"split_indices":[76,0,85,42,76,0,0,52,5,0,0,0,0],"split_type":[0,0,0,0,0,0,0,0,0,0,0,0,0],"sum_hessian":[1.9057935E2,1.40076885E1,1.7657166E2,1.8250784E1,1.5832088E2,1.1112158E1,7.1386247E0,9.493182E1,6.338905E1,7.6230755E0,8.730875E1,2.4657078E1,3.873197E1],"tree_param":{"num_deleted":"0","num_feature":"106","num_nodes":"13","size_leaf_vector":"1"}},{"base_weights":[-2.155592E-2,3.0574441E-2,-6.23074E-1,-3.06496E-1,1.4988557E-1,-5.0585372E-3,-1.392832E-1,2.0271422E-1,-7.87522E-1,4.5803204E-2,7.396145E-1,-4.4617668E-2,7.92121E-2,-1.530941E-1,-3.8196657E-2,5.6327835E-2,-8.2411235E-3,1.21720344E-1,2.4604976E-2],"categories":[],"categories_nodes":[],"categories_segments":[],"categories_sizes":[],"default_left":[0,0,0,0,0,0,0,0,0,0,0,0,0,0,0,0,0,0,0],"id":8,"left_children":[1,3,5,7,9,-1,-1,11,13,15,17,-1,-1,-1,-1,-1,-1,-1,-1],"loss_changes":[6.1995225E0,7.2869105E0,4.755411E0,1.1799421E1,8.122297E0,0E0,0E0,6.492252E0,5.074806E0,5.660775E0,2.594883E0,0E0,0E0,0E0,0E0,0E0,0E0,0E0,0E0],"parents":[2147483647,0,0,1,1,2,2,3,3,4,4,7,7,8,8,9,9,10,10],"right_children":[2,4,6,8,10,-1,-1,12,14,16,18,-1,-1,-1,-1,-1,-1,-1,-1],"split_conditions":[1.7362405E0,-5.969216E-1,2.592807E-1,1.0197604E0,6.976726E-1,-5.0585372E-3,-1.392832E-1,1.0884061E-1,-1.9368029E-1,-4.685854E-1,8.376711E-1,-4.4617668E-2,7.92121E-2,-1.530941E-1,-3.8196657E-2,5.6327835E-2,-8.2411235E-3,1.21720344E-1,2.4604976E-2],"split_indices":[33,74,43,49,88,0,0,50,11,83,50,0,0,0,0,0,0,0,0],"split_type":[0,0,0,0,0,0,0,0,0,0,0,0,0,0,0,0,0,0,0],"sum_hessian":[1.942085E2,1.7944029E2,1.4768207E1,4.6281532E1,1.3315875E2,7.7059875E0,7.062219E0,2.26622E1,2.3619331E1,1.1424303E2,1.891573E1,1.0030828E1,1.26313715E1,1.0627926E1,1.29914055E1,2.3832258E1,9.041077E1,1.1778248E1,7.137481E0],"tree_param":{"num_deleted":"0","num_feature":"106","num_nodes":"19","size_leaf_vector":"1"}},{"base_weights":[-5.49092E-2,5.817165E-2,-4.0032914E-1,-9.616785E-2,1.2198433E-1,-1.4662035E-1,-2.1723402E-1,4.9234134E-1,1.830082E-2,6.353775E-2,-4.0484855E-1,1.086418E-1,2.4299829E-3,-5.448602E-2,1.6012967E-2,1.8476626E-3,-8.119541E-2],"categories":[],"categories_nodes":[],"categories_segments":[],"categories_sizes":[],"default_left":[0,0,0,0,0,0,0,0,0,0,0,0,0,0,0,0,0],"id":9,"left_children":[1,3,5,-1,7,-1,9,11,13,-1,15,-1,-1,-1,-1,-1,-1],"loss_changes":[7.539384E0,7.981096E0,6.7483315E0,0E0,5.1591835E0,0E0,5.8378034E0,5.6368217E0,5.871818E0,0E0,3.8256168E0,0E0,0E0,0E0,0E0,0E0,0E0],"parents":[2147483647,0,0,1,1,2,2,4,4,6,6,7,7,8,8,10,10],"right_children":[2,4,6,-1,8,-1,10,12,14,-1,16,-1,-1,-1,-1,-1,-1],"split_conditions":[8.1662333E-1,-1.2679094E0,-1.3549342E0,-9.616785E-2,-8.446462E-1,-1.4662035E-1,-7.40016E-1,8.7066755E-2,-1.0844209E0,6.353775E-2,-2.3172584E-1,1.086418E-1,2.4299829E-3,-5.448602E-2,1.6012967E-2,1.8476626E-3,-8.119541E-2],"split_indices":[30,74,76,0,78,0,77,74,22,0,76,0,0,0,0,0,0],"split_type":[0,0,0,0,0,0,0,0,0,0,0,0,0,0,0,0,0],"sum_hessian":[1.9054655E2,1.4396011E2,4.6586437E1,9.041637E0,1.3491849E2,7.357148E0,3.9229286E1,2.8478924E1,1.0643956E2,7.404363E0,3.1824924E1,1.4587529E1,1.3891395E1,2.0113653E1,8.6325905E1,1.272461E1,1.9100315E1],"tree_param":{"num_deleted":"0","num_feature":"106","num_nodes":"17","size_leaf_vector":"1"}},{"base_weights":[-4.8635136E-3,1.9930528E-1,-1.805032E-1,-7.075021E-2,2.942043E-1,-4.14563E-1,1.9422252E-1,5.374891E-1,-0E0,-6.6031426E-1,1.488502E-1,4.2081553E-1,-8.07299E-2,2.7856354E-2,1.0432706E-1,6.215742E-2,-4.0016305E-2,-1.0491729E-1,-2.4775932E-2,-2.8797392E-2,8.9599036E-2,8.9047305E-2,3.2949238E-3],"categories":[],"categories_nodes":[],"categories_segments":[],"categories_sizes":[],"default_left":[0,0,0,0,0,0,0,0,0,0,0,0,0,0,0,0,0,0,0,0,0,0,0],"id":10,"left_children":[1,3,5,-1,7,9,11,13,15,17,19,21,-1,-1,-1,-1,-1,-1,-1,-1,-1,-1,-1],"loss_changes":[6.9671702E0,6.853241E0,9.287138E0,0E0,5.765176E0,9.141E0,8.268628E0,4.1632824E0,6.6762476E0,4.132847E0,4.9753046E0,4.07709E0,0E0,0E0,0E0,0E0,0E0,0E0,0E0,0E0,0E0,0E0,0E0],"parents":[2147483647,0,0,1,1,2,2,4,4,5,5,6,6,7,7,8,8,9,9,10,10,11,11],"right_children":[2,4,6,-1,8,10,12,14,16,18,20,22,-1,-1,-1,-1,-1,-1,-1,-1,-1,-1,-1],"split_conditions":[-9.40438E-2,-1.632025E0,2.0542642E-1,-7.075021E-2,4.95975E-2,9.785491E-2,1.1686362E0,-6.04355E-1,-2.232562E-1,1.9841239E-1,2.6160413E-1,7.2145927E-1,-8.07299E-2,2.7856354E-2,1.0432706E-1,6.215742E-2,-4.0016305E-2,-1.0491729E-1,-2.4775932E-2,-2.8797392E-2,8.9599036E-2,8.9047305E-2,3.2949238E-3],"split_indices":[70,70,5,0,20,87,5,55,68,9,72,86,0,0,0,0,0,0,0,0,0,0,0],"split_type":[0,0,0,0,0,0,0,0,0,0,0,0,0,0,0,0,0,0,0,0,0,0,0],"sum_hessian":[1.9233652E2,8.861903E1,1.0371748E2,8.8428E0,7.977623E1,6.3940044E1,3.9777443E1,4.3157486E1,3.6618744E1,4.452465E1,1.9415394E1,3.203475E1,7.7426906E0,2.351982E1,1.9637669E1,1.4160894E1,2.245785E1,2.9478365E1,1.5046285E1,1.202521E1,7.390184E0,1.7005825E1,1.5028928E1],"tree_param":{"num_deleted":"0","num_feature":"106","num_nodes":"23","size_leaf_vector":"1"}},{"base_weights":[-2.1242336E-3,1.7193529E-1,-1.7339487E-1,1.08276136E-1,7.498425E-2,-3.921467E-1,1.5251772E-1,-2.4998277E-2,9.9643454E-2,4.2049434E-2,-5.187631E-1,5.0008637E-1,-1.243368E-1,-1.7702125E-2,7.269256E-2,-2.0382248E-2,-1.11523256E-1,1.1507183E-1,-1.351168E-2,-1.0662061E-1,4.8292946E-2],"categories":[],"categories_nodes":[],"categories_segments":[],"categories_sizes":[],"default_left":[0,0,0,0,0,0,0,0,0,0,0,0,0,0,0,0,0,0,0,0,0],"id":11,"left_children":[1,3,5,-1,7,9,11,13,-1,-1,15,17,19,-1,-1,-1,-1,-1,-1,-1,-1],"loss_changes":[5.566782E0,6.37227E0,6.8140655E0,0E0,6.3486166E0,5.553178E0,3.7997143E0,5.7549458E0,0E0,0E0,6.776861E0,5.086308E0,9.279652E0,0E0,0E0,0E0,0E0,0E0,0E0,0E0,0E0],"parents":[2147483647,0,0,1,1,2,2,4,4,5,5,6,6,7,7,10,10,11,11,12,12],"right_children":[2,4,6,-1,8,10,12,14,-1,-1,16,18,20,-1,-1,-1,-1,-1,-1,-1,-1],"split_conditions":[-1.5884092E-2,-1.0645667E0,4.5962986E-2,1.08276136E-1,-1.3732532E-1,-1.0887815E0,-1.4606501E-1,7.719629E-1,9.9643454E-2,4.2049434E-2,-2.0091496E-1,-1.5457642E-1,-3.6346417E-2,-1.7702125E-2,7.269256E-2,-2.0382248E-2,-1.11523256E-1,1.1507183E-1,-1.351168E-2,-1.0662061E-1,4.8292946E-2],"split_indices":[72,21,52,0,72,26,87,9,0,0,21,47,55,0,0,0,0,0,0,0,0],"split_type":[0,0,0,0,0,0,0,0,0,0,0,0,0,0,0,0,0,0,0,0,0],"sum_hessian":[1.847291E2,9.132711E1,9.3401985E1,9.608058E0,8.1719055E1,5.595124E1,3.745075E1,7.290394E1,8.815113E0,7.778121E0,4.817312E1,1.6407425E1,2.1043322E1,6.1820683E1,1.108326E1,2.6938747E1,2.1234371E1,9.1517E0,7.255726E0,8.384108E0,1.2659214E1],"tree_param":{"num_deleted":"0","num_feature":"106","num_nodes":"21","size_leaf_vector":"1"}},{"base_weights":[-0E0,5.400176E-1,-5.7024624E-2,1.185262E-1,1.3843012E-2,-4.109247E-1,5.199411E-2,4.500024E-2,-6.5541583E-1,2.0128599E-1,-2.9043332E-1,-1.10583596E-1,-4.6753166E-3,7.427236E-2,7.5203145E-4,-1.3035135E-1,-8.287189E-3],"categories":[],"categories_nodes":[],"categories_segments":[],"categories_sizes":[],"default_left":[0,0,0,0,0,0,0,0,0,0,0,0,0,0,0,0,0],"id":12,"left_children":[1,3,5,-1,-1,7,9,-1,11,13,15,-1,-1,-1,-1,-1,-1],"loss_changes":[5.918767E0,3.2688236E0,6.7116923E0,0E0,0E0,8.141874E0,6.824658E0,0E0,5.067093E0,7.515418E0,6.9345827E0,0E0,0E0,0E0,0E0,0E0,0E0],"parents":[2147483647,0,0,1,1,2,2,5,5,6,6,8,8,9,9,10,10],"right_children":[2,4,6,-1,-1,8,10,-1,12,14,16,-1,-1,-1,-1,-1,-1],"split_conditions":[-1.21512E0,-1.06261626E-1,-5.3637177E-1,1.185262E-1,1.3843012E-2,-6.8434787E-1,4.855971E-1,4.500024E-2,9.5171236E-2,-8.670338E-2,-4.6156338E-1,-1.10583596E-1,-4.6753166E-3,7.427236E-2,7.5203145E-4,-1.3035135E-1,-8.287189E-3],"split_indices":[26,70,53,0,0,11,72,0,52,53,82,0,0,0,0,0,0],"split_type":[0,0,0,0,0,0,0,0,0,0,0,0,0,0,0,0,0],"sum_hessian":[1.8884923E2,1.7372969E1,1.7147626E2,7.696974E0,9.675994E0,3.9947002E1,1.3152925E2,9.25467E0,3.0692333E1,9.20858E1,3.944345E1,2.0978937E1,9.713394E0,2.8456734E1,6.3629066E1,7.635503E0,3.180795E1],"tree_param":{"num_deleted":"0","num_feature":"106","num_nodes":"17","size_leaf_vector":"1"}},{"base_weights":[3.1138666E-2,-1.2472999E-2,9.243578E-2,-3.4161586E-1,8.251966E-2,-1.251507E-1,-5.492175E-2,8.797024E-2,3.350206E-2,4.8468534E-2,-9.068045E-2,-1.6143914E-2,3.2781355E-2],"categories":[],"categories_nodes":[],"categories_segments":[],"categories_sizes":[],"default_left":[0,0,0,0,0,0,0,0,0,0,0,0,0],"id":13,"left_children":[1,3,-1,5,7,-1,9,-1,11,-1,-1,-1,-1],"loss_changes":[6.1813416E0,5.6640124E0,0E0,7.9991336E0,4.35717E0,0E0,9.981789E0,0E0,5.334696E0,0E0,0E0,0E0,0E0],"parents":[2147483647,0,0,1,1,3,3,4,4,6,6,8,8],"right_children":[2,4,-1,6,8,-1,10,-1,12,-1,-1,-1,-1],"split_conditions":[1.5623002E0,-6.632372E-1,9.243578E-2,-2.401336E-1,-5.518232E-1,-1.251507E-1,1.5022512E-1,8.797024E-2,2.3088248E-1,4.8468534E-2,-9.068045E-2,-1.6143914E-2,3.2781355E-2],"split_indices":[74,51,0,83,51,0,7,0,52,0,0,0,0],"split_type":[0,0,0,0,0,0,0,0,0,0,0,0,0],"sum_hessian":[1.8810397E2,1.7842447E2,9.67951E0,3.961562E1,1.3880885E2,1.0628875E1,2.8986744E1,8.605134E0,1.3020372E2,1.7686884E1,1.1299859E1,7.65539E1,5.3649815E1],"tree_param":{"num_deleted":"0","num_feature":"106","num_nodes":"13","size_leaf_vector":"1"}},{"base_weights":[1.1849202E-2,-1.7616071E-1,1.1792958E-1,-3.5236245E-1,2.8863376E-1,-7.968226E-2,1.7580584E-1,-3.9688606E-2,-7.2035384E-1,1.038017E-1,-1.5155595E-2,-4.2188954E-2,2.40825E-1,6.2140923E-2,-5.590788E-2,-4.5883328E-2,-1.4818195E-1,1.3371573E-1,1.7805045E-2],"categories":[],"categories_nodes":[],"categories_segments":[],"categories_sizes":[],"default_left":[0,0,0,0,0,0,0,0,0,0,0,0,0,0,0,0,0,0,0],"id":14,"left_children":[1,3,5,7,9,-1,11,13,15,-1,-1,-1,17,-1,-1,-1,-1,-1,-1],"loss_changes":[3.7157156E0,5.594591E0,5.4789305E0,5.554502E0,4.6814528E0,0E0,3.9220757E0,6.8409567E0,3.2592793E0,0E0,0E0,0E0,7.838362E0,0E0,0E0,0E0,0E0,0E0,0E0],"parents":[2147483647,0,0,1,1,2,2,3,3,4,4,6,6,7,7,8,8,12,12],"right_children":[2,4,6,8,10,-1,12,14,16,-1,-1,-1,18,-1,-1,-1,-1,-1,-1],"split_conditions":[-4.3729693E-1,2.1826243E-1,-1.5108472E0,-4.1939405E-1,2.1962555E-1,-7.968226E-2,-1.2649705E0,-5.267672E-1,4.851418E-1,1.038017E-1,-1.5155595E-2,-4.2188954E-2,-8.159521E-1,6.2140923E-2,-5.590788E-2,-4.5883328E-2,-1.4818195E-1,1.3371573E-1,1.7805045E-2],"split_indices":[51,29,70,52,82,0,42,55,50,0,0,0,71,0,0,0,0,0,0],"split_type":[0,0,0,0,0,0,0,0,0,0,0,0,0,0,0,0,0,0,0],"sum_hessian":[1.8455626E2,6.599238E1,1.1856389E2,4.818332E1,1.7809061E1,7.329972E0,1.1123392E2,2.6795444E1,2.1387877E1,7.10114E0,1.0707921E1,1.1556018E1,9.9677895E1,1.1414465E1,1.5380979E1,1.4077407E1,7.3104687E0,8.378868E0,9.129903E1],"tree_param":{"num_deleted":"0","num_feature":"106","num_nodes":"19","size_leaf_vector":"1"}},{"base_weights":[-1.7129641E-3,5.054798E-2,-8.034294E-2,2.711394E-1,-1.0451342E-1,8.5209906E-2,6.681228E-1,3.9540684E-1,-2.7486932E-1,3.1306513E-2,-6.944484E-2,1.8379465E-2,1.3745114E-1,-1.855817E-2,9.0955146E-2,-8.802038E-2,-1.34051405E-2],"categories":[],"categories_nodes":[],"categories_segments":[],"categories_sizes":[],"default_left":[0,0,0,0,0,0,0,0,0,0,0,0,0,0,0,0,0],"id":15,"left_children":[1,3,-1,5,7,9,11,13,15,-1,-1,-1,-1,-1,-1,-1,-1],"loss_changes":[6.6829557E0,6.059488E0,0E0,5.2651954E0,8.929019E0,6.081442E0,5.3496075E0,5.4861608E0,5.677087E0,0E0,0E0,0E0,0E0,0E0,0E0,0E0,0E0],"parents":[2147483647,0,0,1,1,3,3,4,4,5,5,6,6,7,7,8,8],"right_children":[2,4,-1,6,8,10,12,14,16,-1,-1,-1,-1,-1,-1,-1,-1],"split_conditions":[1.7362405E0,3.9397605E-2,-8.034294E-2,2.511757E-1,-6.025452E-1,7.315662E-1,-1.6347843E-1,-7.3503107E-1,-5.472691E-1,3.1306513E-2,-6.944484E-2,1.8379465E-2,1.3745114E-1,-1.855817E-2,9.0955146E-2,-8.802038E-2,-1.34051405E-2],"split_indices":[33,78,0,88,21,26,85,101,74,0,0,0,0,0,0,0,0],"split_type":[0,0,0,0,0,0,0,0,0,0,0,0,0,0,0,0,0],"sum_hessian":[1.877429E2,1.7483537E2,1.290753E1,7.212548E1,1.027099E2,5.0118656E1,2.2006823E1,2.5619568E1,7.709033E1,4.0230907E1,9.887751E0,1.1321982E1,1.068484E1,1.0296111E1,1.5323456E1,1.9150564E1,5.7939766E1],"tree_param":{"num_deleted":"0","num_feature":"106","num_nodes":"17","size_leaf_vector":"1"}},{"base_weights":[3.4885306E-2,-8.187732E-2,7.336661E-2,1.73312E-1,-2.3529361E-1,-6.01157E-2,2.3187818E-1,-4.2492127E-1,5.609958E-2,8.996585E-2,1.9203067E-2,-7.385346E-2,2.0780409E-2],"categories":[],"categories_nodes":[],"categories_segments":[],"categories_sizes":[],"default_left":[0,0,0,0,0,0,0,0,0,0,0,0,0],"id":16,"left_children":[1,-1,3,5,7,-1,9,11,-1,-1,-1,-1,-1],"loss_changes":[4.9967313E0,0E0,5.378834E0,5.289446E0,5.8654513E0,0E0,4.3277073E0,4.041937E0,0E0,0E0,0E0,0E0,0E0],"parents":[2147483647,0,0,2,2,3,3,4,4,6,6,7,7],"right_children":[2,-1,4,6,8,-1,10,12,-1,-1,-1,-1,-1],"split_conditions":[-8.9333206E-1,-8.187732E-2,8.6616224E-1,-1.1034974E0,8.99872E-1,-6.01157E-2,-7.75056E-1,1.7017268E0,5.609958E-2,8.996585E-2,1.9203067E-2,-7.385346E-2,2.0780409E-2],"split_indices":[85,0,30,74,76,0,21,30,0,0,0,0,0],"split_type":[0,0,0,0,0,0,0,0,0,0,0,0,0],"sum_hessian":[1.8044247E2,8.204335E0,1.7223814E2,1.3068448E2,4.1553658E1,9.703715E0,1.2098077E2,3.3147446E1,8.406214E0,1.3422175E1,1.07558586E2,2.5244043E1,7.9034023E0],"tree_param":{"num_deleted":"0","num_feature":"106","num_nodes":"13","size_leaf_vector":"1"}},{"base_weights":[-1.4502367E-2,1.0778981E-1,-2.3880066E-1,2.2570776E-2,8.7712556E-2,-1.2062327E-1,-4.4754963E-2,1.3518438E-1,-4.9402508E-1,1.7413686E-1,-5.296155E-1,6.44428E-2,2.3992506E-3,-1.3004176E-2,-9.480421E-2,5.8191538E-2,-2.8198577E-2,-1.02905676E-1,-2.0339614E-2],"categories":[],"categories_nodes":[],"categories_segments":[],"categories_sizes":[],"default_left":[0,0,0,0,0,0,0,0,0,0,0,0,0,0,0,0,0,0,0],"id":17,"left_children":[1,3,5,7,-1,-1,9,11,13,15,17,-1,-1,-1,-1,-1,-1,-1,-1],"loss_changes":[5.0595403E0,6.219796E0,9.543732E0,6.1817436E0,0E0,0E0,5.7702036E0,3.9953327E0,1.9911389E0,4.8739686E0,1.7507501E0,0E0,0E0,0E0,0E0,0E0,0E0,0E0,0E0],"parents":[2147483647,0,0,1,1,2,2,3,3,6,6,7,7,8,8,9,9,10,10],"right_children":[2,4,6,8,-1,-1,10,12,14,16,18,-1,-1,-1,-1,-1,-1,-1,-1],"split_conditions":[3.2194647E-1,1.0396821E0,-5.6559014E-1,9.6945345E-1,8.7712556E-2,-1.2062327E-1,5.173192E-1,-7.33462E-1,-1.9361037E-1,9.9218294E-2,2.2209793E-1,6.44428E-2,2.3992506E-3,-1.3004176E-2,-9.480421E-2,5.8191538E-2,-2.8198577E-2,-1.02905676E-1,-2.0339614E-2],"split_indices":[68,76,53,30,0,0,76,67,8,74,30,0,0,0,0,0,0,0,0],"split_type":[0,0,0,0,0,0,0,0,0,0,0,0,0,0,0,0,0,0,0],"sum_hessian":[1.8203728E2,1.1785425E2,6.418302E1,1.047287E2,1.31255455E1,1.2018766E1,5.2164257E1,8.674985E1,1.7978853E1,3.623876E1,1.5925496E1,1.8317978E1,6.843187E1,8.547134E0,9.431719E0,2.0627886E1,1.5610875E1,7.4669533E0,8.458543E0],"tree_param":{"num_deleted":"0","num_feature":"106","num_nodes":"19","size_leaf_vector":"1"}},{"base_weights":[-2.384991E-2,-7.325613E-2,9.4071195E-2,1.4415215E-1,-2.0658347E-1,4.6808392E-1,-1.3248436E-1,5.2851092E-2,-2.7265763E-1,1.1137274E-1,9.733206E-3,-6.55549E-2,3.0807849E-2,-1.2173561E-1,-2.3347065E-2],"categories":[],"categories_nodes":[],"categories_segments":[],"categories_sizes":[],"default_left":[0,0,0,0,0,0,0,0,0,0,0,0,0,0,0],"id":18,"left_children":[1,3,-1,5,7,9,11,-1,13,-1,-1,-1,-1,-1,-1],"loss_changes":[7.5327625E0,5.2310305E0,0E0,6.227912E0,4.8823657E0,5.5041046E0,6.2127934E0,0E0,5.6019382E0,0E0,0E0,0E0,0E0,0E0,0E0],"parents":[2147483647,0,0,1,1,3,3,4,4,5,5,6,6,8,8],"right_children":[2,4,-1,6,8,10,12,-1,14,-1,-1,-1,-1,-1,-1],"split_conditions":[1.4924697E0,-5.215068E-1,9.4071195E-2,-2.4837773E-2,-1.1426232E0,-4.0201727E-1,1.0021206E-1,5.2851092E-2,-8.257944E-1,1.1137274E-1,9.733206E-3,-6.55549E-2,3.0807849E-2,-1.2173561E-1,-2.3347065E-2],"split_indices":[74,88,0,72,63,62,39,0,63,0,0,0,0,0,0],"split_type":[0,0,0,0,0,0,0,0,0,0,0,0,0,0,0],"sum_hessian":[1.8808936E2,1.7822183E2,9.867515E0,6.743261E1,1.1078923E2,3.090885E1,3.6523758E1,9.600496E0,1.0118873E2,1.3364624E1,1.7544224E1,1.7631592E1,1.8892166E1,8.374572E0,9.281416E1],"tree_param":{"num_deleted":"0","num_feature":"106","num_nodes":"15","size_leaf_vector":"1"}},{"base_weights":[-2.6465353E-4,-7.710289E-2,3.5125207E-2,2.9104695E-1,-8.054318E-2,6.3197947E-1,-5.2473903E-2,-1.4566879E-1,6.553699E-2,1.2466648E-1,-4.574113E-3,-5.9660777E-2,3.793395E-2,-9.2399615E-4,-5.7374775E-2],"categories":[],"categories_nodes":[],"categories_segments":[],"categories_sizes":[],"default_left":[0,0,0,0,0,0,0,0,0,0,0,0,0,0,0],"id":19,"left_children":[1,-1,3,5,7,9,11,13,-1,-1,-1,-1,-1,-1,-1],"loss_changes":[4.246998E0,0E0,5.207637E0,6.5066595E0,4.9632044E0,7.696865E0,4.7751317E0,5.0032024E0,0E0,0E0,0E0,0E0,0E0,0E0,0E0],"parents":[2147483647,0,0,2,2,3,3,4,4,5,5,6,6,7,7],"right_children":[2,-1,4,6,8,10,12,14,-1,-1,-1,-1,-1,-1,-1],"split_conditions":[-8.9333206E-1,-7.710289E-2,-5.639803E-1,-5.0518536E-3,1.4548591E0,-3.0406305E-1,-8.4599864E-1,7.315662E-1,6.553699E-2,1.2466648E-1,-4.574113E-3,-5.9660777E-2,3.793395E-2,-9.2399615E-4,-5.7374775E-2],"split_indices":[85,0,85,70,88,62,63,26,0,0,0,0,0,0,0],"split_type":[0,0,0,0,0,0,0,0,0,0,0,0,0,0,0],"sum_hessian":[1.8218457E2,8.766116E0,1.7341846E2,5.377876E1,1.196397E2,2.6715721E1,2.7063036E1,1.0921691E2,1.0422787E1,1.6372566E1,1.0343155E1,1.2230069E1,1.4832968E1,7.812071E1,3.1096205E1],"tree_param":{"num_deleted":"0","num_feature":"106","num_nodes":"15","size_leaf_vector":"1"}},{"base_weights":[-1.8726615E-2,-5.129199E-2,7.907137E-2,6.7058586E-2,-8.6295135E-2,-3.636075E-2,-7.884423E-2,-1.2961544E-2,5.6668587E-2],"categories":[],"categories_nodes":[],"categories_segments":[],"categories_sizes":[],"default_left":[0,0,0,0,0,0,0,0,0],"id":20,"left_children":[1,3,-1,-1,5,7,-1,-1,-1],"loss_changes":[4.0974464E0,3.8320878E0,0E0,0E0,4.7711153E0,5.7786303E0,0E0,0E0,0E0],"parents":[2147483647,0,0,1,1,4,4,5,5],"right_children":[2,4,-1,-1,6,8,-1,-1,-1],"split_conditions":[1.8460867E0,-1.2978323E0,7.907137E-2,6.7058586E-2,1.191571E0,1.0396821E0,-7.884423E-2,-1.2961544E-2,5.6668587E-2],"split_indices":[74,63,0,0,58,76,0,0,0],"split_type":[0,0,0,0,0,0,0,0,0],"sum_hessian":[1.8589491E2,1.7839389E2,7.5010195E0,8.712422E0,1.6968147E2,1.5716954E2,1.2511936E1,1.386242E2,1.8545322E1],"tree_param":{"num_deleted":"0","num_feature":"106","num_nodes":"9","size_leaf_vector":"1"}},{"base_weights":[-3.1782992E-2,1.1815955E-1,-1.9233446E-1,-4.2938713E-2,2.0317546E-1,4.7895722E-2,-3.045751E-1,4.9499416E-1,1.4869366E-2,2.2555754E-1,-4.595512E-1,1.3764097E-1,3.135042E-2,7.445295E-2,-2.3523055E-2,-3.287461E-2,1.0428487E-1,-8.4519066E-2,-7.979202E-3],"categories":[],"categories_nodes":[],"categories_segments":[],"categories_sizes":[],"default_left":[0,0,0,0,0,0,0,0,0,0,0,0,0,0,0,0,0,0,0],"id":21,"left_children":[1,3,5,-1,7,-1,9,11,13,15,17,-1,-1,-1,-1,-1,-1,-1,-1],"loss_changes":[4.5669513E0,4.0126004E0,6.2004995E0,0E0,4.5437446E0,0E0,6.51834E0,4.528915E0,6.823153E0,6.1225133E0,5.7132397E0,0E0,0E0,0E0,0E0,0E0,0E0,0E0,0E0],"parents":[2147483647,0,0,1,1,2,2,4,4,6,6,7,7,8,8,9,9,10,10],"right_children":[2,4,6,-1,8,-1,10,12,14,16,18,-1,-1,-1,-1,-1,-1,-1,-1],"split_conditions":[1.0197604E0,-8.372592E-1,-9.9357694E-1,-4.2938713E-2,-2.847215E-1,4.7895722E-2,-8.56864E-1,-1.0390302E0,-6.4138925E-1,-1.0822283E0,1.578203E-1,1.3764097E-1,3.135042E-2,7.445295E-2,-2.3523055E-2,-3.287461E-2,1.0428487E-1,-8.4519066E-2,-7.979202E-3],"split_indices":[49,103,55,0,76,0,6,33,102,6,4,0,0,0,0,0,0,0,0],"split_type":[0,0,0,0,0,0,0,0,0,0,0,0,0,0,0,0,0,0,0],"sum_hessian":[1.8745656E2,9.674524E1,9.071132E1,1.3996622E1,8.274862E1,1.3918602E1,7.679272E1,3.1607159E1,5.114146E1,1.7122032E1,5.967068E1,7.1968136E0,2.4410345E1,1.2830802E1,3.8310658E1,9.87516E0,7.246872E0,3.6126682E1,2.3544E1],"tree_param":{"num_deleted":"0","num_feature":"106","num_nodes":"19","size_leaf_vector":"1"}},{"base_weights":[2.9896915E-2,8.922419E-2,-4.0726997E-3,8.16632E-2,-3.1987974E-1,-1.0437971E-2,5.054694E-1,-5.602798E-1,6.9206946E-2,8.651071E-2,-1.2902366E-2,-7.615259E-3,1.0965566E-1,-7.995982E-3,-9.5139E-2],"categories":[],"categories_nodes":[],"categories_segments":[],"categories_sizes":[],"default_left":[0,0,0,0,0,0,0,0,0,0,0,0,0,0,0],"id":22,"left_children":[1,-1,3,5,7,9,11,13,-1,-1,-1,-1,-1,-1,-1],"loss_changes":[4.490308E0,0E0,4.7785473E0,5.437459E0,8.456376E0,8.1152115E0,5.9118466E0,3.3460283E0,0E0,0E0,0E0,0E0,0E0,0E0,0E0],"parents":[2147483647,0,0,2,2,3,3,4,4,5,5,6,6,7,7],"right_children":[2,-1,4,6,8,10,12,14,-1,-1,-1,-1,-1,-1,-1],"split_conditions":[-1.2978323E0,8.922419E-2,8.5131556E-1,8.7306374E-1,1.4054085E0,-8.1373084E-1,-5.519532E-1,1.6731523E-1,6.9206946E-2,8.651071E-2,-1.2902366E-2,-7.615259E-3,1.0965566E-1,-7.995982E-3,-9.5139E-2],"split_indices":[63,0,48,76,77,92,101,12,0,0,0,0,0,0,0],"split_type":[0,0,0,0,0,0,0,0,0,0,0,0,0,0,0],"sum_hessian":[1.8105315E2,7.4112945E0,1.7364185E2,1.3690059E2,3.674127E1,1.1306814E2,2.3832449E1,2.9356705E1,7.3845615E0,1.2376252E1,1.0069188E2,1.0208484E1,1.3623966E1,9.950454E0,1.9406252E1],"tree_param":{"num_deleted":"0","num_feature":"106","num_nodes":"15","size_leaf_vector":"1"}},{"base_weights":[1.4131631E-2,-4.9600296E-2,2.785636E-1,-4.4215457E-3,-8.632049E-2,-3.298459E-2,5.9858197E-1,-5.1111612E-2,7.877107E-2,2.4043176E-2,1.1059067E-1,8.352E-3,-3.0814053E-2],"categories":[],"categories_nodes":[],"categories_segments":[],"categories_sizes":[],"default_left":[0,0,0,0,0,0,0,0,0,0,0,0,0],"id":23,"left_children":[1,3,5,7,-1,-1,9,11,-1,-1,-1,-1,-1],"loss_changes":[3.1635885E0,4.4646864E0,6.6595078E0,4.345641E0,0E0,0E0,2.7322865E0,3.349323E0,0E0,0E0,0E0,0E0,0E0],"parents":[2147483647,0,0,1,1,2,2,3,3,6,6,7,7],"right_children":[2,4,6,8,-1,-1,10,12,-1,-1,-1,-1,-1],"split_conditions":[1.4054085E0,1.3464032E0,-3.9305094E-1,1.4924697E0,-8.632049E-2,-3.298459E-2,1.3769068E-1,2.4886876E-1,7.877107E-2,2.4043176E-2,1.1059067E-1,8.352E-3,-3.0814053E-2],"split_indices":[77,48,9,74,0,0,15,76,0,0,0,0,0],"split_type":[0,0,0,0,0,0,0,0,0,0,0,0,0],"sum_hessian":[1.8454088E2,1.4905154E2,3.5489323E1,1.4071518E2,8.336371E0,1.2939879E1,2.2549444E1,1.3243256E2,8.282625E0,1.096322E1,1.1586225E1,8.356348E1,4.8869083E1],"tree_param":{"num_deleted":"0","num_feature":"106","num_nodes":"13","size_leaf_vector":"1"}},{"base_weights":[5.834729E-2,9.449449E-2,-8.4194995E-2,5.724492E-1,3.155281E-2,1.4555793E-2,1.4508155E-1,-8.473652E-2,8.373057E-2,-4.553897E-2,1.8269207E-2],"categories":[],"categories_nodes":[],"categories_segments":[],"categories_sizes":[],"default_left":[0,0,0,0,0,0,0,0,0,0,0],"id":24,"left_children":[1,3,-1,5,7,-1,-1,-1,9,-1,-1],"loss_changes":[4.9810476E0,5.1530523E0,0E0,5.461998E0,5.959463E0,0E0,0E0,0E0,4.658945E0,0E0,0E0],"parents":[2147483647,0,0,1,1,3,3,4,4,8,8],"right_children":[2,4,-1,6,8,-1,-1,-1,10,-1,-1],"split_conditions":[2.191698E0,-9.8042595E-1,-8.4194995E-2,2.0329422E-1,-8.940434E-1,1.4555793E-2,1.4508155E-1,-8.473652E-2,-1.1781117E0,-4.553897E-2,1.8269207E-2],"split_indices":[64,55,0,74,55,0,0,0,30,0,0],"split_type":[0,0,0,0,0,0,0,0,0,0,0],"sum_hessian":[1.8011769E2,1.729011E2,7.2165966E0,1.8992876E1,1.5390822E2,1.19038925E1,7.0889835E0,9.212457E0,1.4469576E2,1.7870817E1,1.2682494E2],"tree_param":{"num_deleted":"0","num_feature":"106","num_nodes":"11","size_leaf_vector":"1"}},{"base_weights":[-1.9372838E-2,5.262803E-1,-6.906248E-2,9.410862E-2,2.2636382E-2,2.6593742E-1,-1.4862911E-1,4.7075156E-2,8.713692E-2,-5.668582E-1,-6.9218665E-2,8.165968E-2,-3.2142896E-2,3.0128999E-2,-1.2170924E-1,-1.0267508E-3,-9.151886E-2],"categories":[],"categories_nodes":[],"categories_segments":[],"categories_sizes":[],"default_left":[0,0,0,0,0,0,0,0,0,0,0,0,0,0,0,0,0],"id":25,"left_children":[1,3,5,-1,-1,7,9,11,-1,13,15,-1,-1,-1,-1,-1,-1],"loss_changes":[4.947219E0,1.0791979E0,4.5219116E0,0E0,0E0,3.159624E0,4.451391E0,4.8568506E0,0E0,8.213839E0,4.820589E0,0E0,0E0,0E0,0E0,0E0,0E0],"parents":[2147483647,0,0,1,1,2,2,5,5,6,6,7,7,9,9,10,10],"right_children":[2,4,6,-1,-1,8,10,12,-1,14,16,-1,-1,-1,-1,-1,-1],"split_conditions":[-1.1387582E0,-1.8177041E-1,-5.991594E-1,9.410862E-2,2.2636382E-2,4.0766934E-1,-6.8178165E-1,-6.518988E-1,8.713692E-2,-1.2734581E0,1.8748657E0,8.165968E-2,-3.2142896E-2,3.0128999E-2,-1.2170924E-1,-1.0267508E-3,-9.151886E-2],"split_indices":[52,55,43,0,0,52,7,10,0,57,13,0,0,0,0,0,0],"split_type":[0,0,0,0,0,0,0,0,0,0,0,0,0,0,0,0,0],"sum_hessian":[1.8181041E2,1.4206107E1,1.6760431E2,7.1356525E0,7.0704546E0,3.1477068E1,1.3612723E2,2.2226326E1,9.250743E0,2.0541931E1,1.15585304E2,7.1009607E0,1.5125365E1,7.3392377E0,1.3202694E1,1.07350746E2,8.234558E0],"tree_param":{"num_deleted":"0","num_feature":"106","num_nodes":"17","size_leaf_vector":"1"}},{"base_weights":[8.075098E-5,-4.0612772E-1,4.6638876E-2,-1.0756595E-1,3.409751E-2,6.6984385E-2,-0E0,4.638173E-2,-7.196175E-2,-3.0179361E-3,6.5034285E-2],"categories":[],"categories_nodes":[],"categories_segments":[],"categories_sizes":[],"default_left":[0,0,0,0,0,0,0,0,0,0,0],"id":26,"left_children":[1,3,5,-1,-1,-1,7,9,-1,-1,-1],"loss_changes":[3.3901856E0,6.5453124E0,3.9332876E0,0E0,0E0,0E0,4.2495193E0,5.0285296E0,0E0,0E0,0E0],"parents":[2147483647,0,0,1,1,2,2,6,6,7,7],"right_children":[2,4,6,-1,-1,-1,8,10,-1,-1,-1],"split_conditions":[-8.422563E-1,-1.9437343E-2,-7.559847E-1,-1.0756595E-1,3.409751E-2,6.6984385E-2,1.2093755E0,9.008409E-1,-7.196175E-2,-3.0179361E-3,6.5034285E-2],"split_indices":[85,38,85,0,0,0,58,87,0,0,0],"split_type":[0,0,0,0,0,0,0,0,0,0,0],"sum_hessian":[1.7915747E2,1.7407791E1,1.6174968E2,1.0088725E1,7.319067E0,1.2759386E1,1.489903E2,1.3901108E2,9.979211E0,1.2213015E2,1.6880934E1],"tree_param":{"num_deleted":"0","num_feature":"106","num_nodes":"11","size_leaf_vector":"1"}},{"base_weights":[9.6640345E-3,8.7802224E-2,-3.165234E-1,9.569327E-2,4.4080175E-2,4.7635004E-2,-6.640393E-1,-6.97871E-2,1.0351294E-1,4.7387775E-2,-4.8914235E-2,-1.2820138E-1,-1.7305566E-2,-7.1496345E-2,1.8118525E-2],"categories":[],"categories_nodes":[],"categories_segments":[],"categories_sizes":[],"default_left":[0,0,0,0,0,0,0,0,0,0,0,0,0,0,0],"id":27,"left_children":[1,3,5,-1,7,9,11,-1,13,-1,-1,-1,-1,-1,-1],"loss_changes":[4.669447E0,4.49358E0,4.56529E0,0E0,5.2640452E0,3.0129912E0,3.568554E0,0E0,4.3607354E0,0E0,0E0,0E0,0E0,0E0,0E0],"parents":[2147483647,0,0,1,1,2,2,4,4,5,5,6,6,8,8],"right_children":[2,4,6,-1,8,10,12,-1,14,-1,-1,-1,-1,-1,-1],"split_conditions":[7.9308295E-1,-1.0273722E0,-2.5459249E-2,9.569327E-2,-1.2124312E0,-3.098009E-1,9.1718614E-1,-6.97871E-2,-1.3127297E0,4.7387775E-2,-4.8914235E-2,-1.2820138E-1,-1.7305566E-2,-7.1496345E-2,1.8118525E-2],"split_indices":[70,38,68,0,74,62,57,0,42,0,0,0,0,0,0],"split_type":[0,0,0,0,0,0,0,0,0,0,0,0,0,0,0],"sum_hessian":[1.8201097E2,1.4767325E2,3.4337727E1,7.4371176E0,1.4023613E2,1.704823E1,1.7289497E1,1.1257931E1,1.289782E2,9.870976E0,7.1772537E0,9.023622E0,8.265876E0,7.331216E0,1.2164698E2],"tree_param":{"num_deleted":"0","num_feature":"106","num_nodes":"15","size_leaf_vector":"1"}},{"base_weights":[4.645755E-2,1.421511E-1,-1.3905789E-1,2.0424561E-1,-8.764808E-2,-3.841562E-1,1.279764E-1,6.166076E-1,7.7964604E-2,2.3860274E-2,-6.146861E-1,5.4447675E-1,-2.8340682E-1,9.114949E-3,1.1081917E-1,-5.647218E-3,5.924062E-2,-2.799596E-2,-1.0913245E-1,1.0978457E-1,1.2635356E-2,-8.358488E-2,1.784772E-2],"categories":[],"categories_nodes":[],"categories_segments":[],"categories_sizes":[],"default_left":[0,0,0,0,0,0,0,0,0,0,0,0,0,0,0,0,0,0,0,0,0,0,0],"id":28,"left_children":[1,3,5,7,-1,9,11,13,15,-1,17,19,21,-1,-1,-1,-1,-1,-1,-1,-1,-1,-1],"loss_changes":[3.2075331E0,6.5602875E0,4.083508E0,5.728344E0,0E0,4.515769E0,5.297972E0,4.141881E0,4.603814E0,0E0,2.3234596E0,2.291267E0,2.936854E0,0E0,0E0,0E0,0E0,0E0,0E0,0E0,0E0,0E0,0E0],"parents":[2147483647,0,0,1,1,2,2,3,3,5,5,6,6,7,7,8,8,10,10,11,11,12,12],"right_children":[2,4,6,8,-1,10,12,14,16,-1,18,20,22,-1,-1,-1,-1,-1,-1,-1,-1,-1,-1],"split_conditions":[2.2664106E-1,1.4497917E0,5.9029853E-1,-6.306036E-1,-8.764808E-2,-5.51367E-1,1.3971773E0,-1.207862E0,3.303152E-1,2.3860274E-2,-4.1422537E-1,-5.9756838E-2,1.6114072E0,9.114949E-3,1.1081917E-1,-5.647218E-3,5.924062E-2,-2.799596E-2,-1.0913245E-1,1.0978457E-1,1.2635356E-2,-8.358488E-2,1.784772E-2],"split_indices":[82,4,42,21,0,70,33,42,51,0,87,63,47,0,0,0,0,0,0,0,0,0,0],"split_type":[0,0,0,0,0,0,0,0,0,0,0,0,0,0,0,0,0,0,0,0,0,0,0],"sum_hessian":[1.785484E2,1.1829938E2,6.024902E1,1.11262024E2,7.037353E0,3.138139E1,2.8867628E1,2.4988638E1,8.6273384E1,8.808668E0,2.2572721E1,1.4304626E1,1.4563003E1,9.617884E0,1.5370755E1,6.68226E1,1.9450785E1,1.0769088E1,1.1803634E1,7.0489254E0,7.255701E0,7.2507114E0,7.312291E0],"tree_param":{"num_deleted":"0","num_feature":"106","num_nodes":"23","size_leaf_vector":"1"}},{"base_weights":[6.3425726E-3,-1.3746612E-1,1.4067632E-1,3.322969E-1,-3.038407E-1,4.7026095E-1,-4.134869E-2,8.941404E-2,-3.901368E-2,-1.6698107E-1,-1.0472724E-1,-2.469267E-2,7.9956096E-1,-3.2797268E-1,3.5854205E-1,2.336902E-2,-4.6085384E-2,1.4392461E-1,5.8794674E-2,-3.0437096E-3,-9.880844E-2,7.562527E-2,-3.553385E-2],"categories":[],"categories_nodes":[],"categories_segments":[],"categories_sizes":[],"default_left":[0,0,0,0,0,0,0,0,0,0,0,0,0,0,0,0,0,0,0,0,0,0,0],"id":29,"left_children":[1,3,5,7,9,11,13,-1,-1,15,-1,-1,17,19,21,-1,-1,-1,-1,-1,-1,-1,-1],"loss_changes":[3.4801369E0,6.87115E0,5.6698046E0,6.522284E0,4.785692E0,7.6886373E0,7.0991054E0,0E0,0E0,4.295234E0,0E0,0E0,2.072177E0,5.315966E0,4.8039103E0,0E0,0E0,0E0,0E0,0E0,0E0,0E0,0E0],"parents":[2147483647,0,0,1,1,2,2,3,3,4,4,5,5,6,6,9,9,12,12,13,13,14,14],"right_children":[2,4,6,8,10,12,14,-1,-1,16,-1,-1,18,20,22,-1,-1,-1,-1,-1,-1,-1,-1],"split_conditions":[-5.5955076E-1,-5.753803E-1,-2.847215E-1,-2.3164217E-1,-6.0546535E-1,-4.2368206E-1,-1.5457642E-1,8.941404E-2,-3.901368E-2,-2.5528368E-1,-1.0472724E-1,-2.469267E-2,-4.8199305E-1,5.124712E-1,3.9826056E-1,2.336902E-2,-4.6085384E-2,1.4392461E-1,5.8794674E-2,-3.0437096E-3,-9.880844E-2,7.562527E-2,-3.553385E-2],"split_indices":[103,52,76,38,64,52,47,0,0,78,0,0,39,21,52,0,0,0,0,0,0,0,0],"split_type":[0,0,0,0,0,0,0,0,0,0,0,0,0,0,0,0,0,0,0,0,0,0,0],"sum_hessian":[1.7812897E2,8.5659706E1,9.246927E1,2.1985298E1,6.3674408E1,3.2531605E1,5.9937664E1,1.3516399E1,8.4689E0,5.2510918E1,1.116349E1,1.0679231E1,2.1852373E1,3.5163754E1,2.477391E1,1.9559092E1,3.2951824E1,8.141688E0,1.3710684E1,2.2607916E1,1.2555838E1,1.764268E1,7.131231E0],"tree_param":{"num_deleted":"0","num_feature":"106","num_nodes":"23","size_leaf_vector":"1"}},{"base_weights":[-5.4317835E-4,1.5728064E-1,-1.23536356E-1,-1.8698033E-2,6.209647E-1,-2.4136323E-1,3.1173235E-1,-1.4440383E-1,7.997261E-2,1.2521566E-1,2.6208193E-3,8.9379504E-2,-4.433908E-1,-1.3887007E-2,8.556838E-2,4.3608617E-2,-3.8760122E-2,5.7049975E-2,-3.9614897E-2,-1.23983614E-1,-2.9736785E-2],"categories":[],"categories_nodes":[],"categories_segments":[],"categories_sizes":[],"default_left":[0,0,0,0,0,0,0,0,0,0,0,0,0,0,0,0,0,0,0,0,0],"id":30,"left_children":[1,3,5,7,9,11,13,15,-1,-1,-1,17,19,-1,-1,-1,-1,-1,-1,-1,-1],"loss_changes":[3.499228E0,6.491678E0,5.2873564E0,5.026031E0,5.396558E0,5.476036E0,3.9052625E0,4.6319556E0,0E0,0E0,0E0,5.2395935E0,5.445385E0,0E0,0E0,0E0,0E0,0E0,0E0,0E0,0E0],"parents":[2147483647,0,0,1,1,2,2,3,3,4,4,5,5,6,6,7,7,11,11,12,12],"right_children":[2,4,6,8,10,12,14,16,-1,-1,-1,18,20,-1,-1,-1,-1,-1,-1,-1,-1],"split_conditions":[-1.5054724E-1,4.6744946E-1,1.4054085E0,8.7306374E-1,1.3464572E0,-4.8707268E-1,-5.3310883E-1,-1.0337838E0,7.997261E-2,1.2521566E-1,2.6208193E-3,4.8009446E-1,-5.403066E-1,-1.3887007E-2,8.556838E-2,4.3608617E-2,-3.8760122E-2,5.7049975E-2,-3.9614897E-2,-1.23983614E-1,-2.9736785E-2],"split_indices":[68,20,77,76,55,88,102,82,0,0,0,6,22,0,0,0,0,0,0,0,0],"split_type":[0,0,0,0,0,0,0,0,0,0,0,0,0,0,0,0,0,0,0,0,0],"sum_hessian":[1.7844089E2,7.767594E1,1.00764946E2,5.6845715E1,2.083023E1,7.983021E1,2.093474E1,4.8823063E1,8.02265E0,1.1682936E1,9.147296E0,3.0295515E1,4.9534695E1,1.0361441E1,1.05733E1,1.228843E1,3.6534634E1,1.5831809E1,1.4463705E1,1.1141712E1,3.8392982E1],"tree_param":{"num_deleted":"0","num_feature":"106","num_nodes":"21","size_leaf_vector":"1"}},{"base_weights":[-2.059457E-3,2.1244158E-1,-1.2218703E-1,8.38612E-2,8.2739346E-2,7.077297E-2,-1.7923716E-1,-3.370634E-2,7.906552E-2,-4.034405E-1,-8.74937E-3,1.220043E-2,-7.632235E-2,-6.896288E-2,4.481975E-2,2.2775391E-2,-4.3024015E-2],"categories":[],"categories_nodes":[],"categories_segments":[],"categories_sizes":[],"default_left":[0,0,0,0,0,0,0,0,0,0,0,0,0,0,0,0,0],"id":31,"left_children":[1,3,5,-1,7,-1,9,11,-1,13,15,-1,-1,-1,-1,-1,-1],"loss_changes":[4.7343197E0,4.014417E0,4.869184E0,0E0,3.6562066E0,0E0,4.1755095E0,3.794813E0,0E0,6.5434804E0,4.5290837E0,0E0,0E0,0E0,0E0,0E0,0E0],"parents":[2147483647,0,0,1,1,2,2,4,4,6,6,7,7,9,9,10,10],"right_children":[2,4,6,-1,8,-1,10,12,-1,14,16,-1,-1,-1,-1,-1,-1],"split_conditions":[-5.3426874E-1,-6.4263284E-1,-8.5763115E-1,8.38612E-2,9.1797096E-1,7.077297E-2,-6.1154014E-1,5.7381153E-1,7.906552E-2,1.7413017E0,2.2399527E-1,1.220043E-2,-7.632235E-2,-6.896288E-2,4.481975E-2,2.2775391E-2,-4.3024015E-2],"split_indices":[85,72,69,0,14,0,103,68,0,63,76,0,0,0,0,0,0],"split_type":[0,0,0,0,0,0,0,0,0,0,0,0,0,0,0,0,0],"sum_hessian":[1.8207516E2,6.478805E1,1.1728712E2,1.2553097E1,5.223495E1,7.878319E0,1.094088E2,4.409141E1,8.143542E0,4.641582E1,6.299298E1,3.6543114E1,7.548297E0,3.835153E1,8.064292E0,4.029325E1,2.2699734E1],"tree_param":{"num_deleted":"0","num_feature":"106","num_nodes":"17","size_leaf_vector":"1"}},{"base_weights":[1.3987047E-2,8.288126E-2,-3.6420077E-1,-4.4973367E-1,1.4312318E-1,-9.917308E-2,-9.6102014E-2,-9.830024E-2,-2.3147524E-3,-0E0,3.655753E-1,5.4351095E-2,-6.129765E-2,7.54412E-2,-1.1320476E-2,5.6686632E-2,-3.0225748E-2],"categories":[],"categories_nodes":[],"categories_segments":[],"categories_sizes":[],"default_left":[0,0,0,0,0,0,0,0,0,0,0,0,0,0,0,0,0],"id":32,"left_children":[1,3,5,7,9,11,-1,-1,-1,13,15,-1,-1,-1,-1,-1,-1],"loss_changes":[4.6623144E0,4.9216094E0,3.0157692E0,2.3735013E0,4.354032E0,4.4215503E0,0E0,0E0,0E0,5.153679E0,3.6825562E0,0E0,0E0,0E0,0E0,0E0,0E0],"parents":[2147483647,0,0,1,1,2,2,3,3,4,4,5,5,9,9,10,10],"right_children":[2,4,6,8,10,12,-1,-1,-1,14,16,-1,-1,-1,-1,-1,-1],"split_conditions":[1.2885375E0,-8.422563E-1,1.1715454E0,2.7882805E-2,8.7069675E-2,-2.4874486E-2,-9.6102014E-2,-9.830024E-2,-2.3147524E-3,-7.1190363E-1,1.3464032E0,5.4351095E-2,-6.129765E-2,7.54412E-2,-1.1320476E-2,5.6686632E-2,-3.0225748E-2],"split_indices":[33,85,82,9,39,77,0,0,0,85,48,0,0,0,0,0,0],"split_type":[0,0,0,0,0,0,0,0,0,0,0,0,0,0,0,0,0],"sum_hessian":[1.7786278E2,1.5133876E2,2.6524014E1,1.4552326E1,1.3678644E2,1.7411879E1,9.112133E0,7.2201385E0,7.332188E0,8.408847E1,5.269797E1,7.2905097E0,1.0121369E1,1.03568125E1,7.373165E1,4.5264587E1,7.433385E0],"tree_param":{"num_deleted":"0","num_feature":"106","num_nodes":"17","size_leaf_vector":"1"}},{"base_weights":[1.9424407E-2,-8.975335E-2,2.1054532E-1,-1.897846E-2,-8.376317E-2,1.05801225E-1,8.304022E-2,5.7507657E-2,-9.289409E-2,2.1832037E-1,-6.0810696E-2,6.6171177E-3,-5.827021E-2,-2.5847208E-2,5.9820306E-2],"categories":[],"categories_nodes":[],"categories_segments":[],"categories_sizes":[],"default_left":[0,0,0,0,0,0,0,0,0,0,0,0,0,0,0],"id":33,"left_children":[1,3,5,7,-1,-1,9,-1,11,13,-1,-1,-1,-1,-1],"loss_changes":[3.7868948E0,4.8627105E0,5.484408E0,3.8402846E0,0E0,0E0,4.610054E0,0E0,5.3996515E0,5.8473053E0,0E0,0E0,0E0,0E0,0E0],"parents":[2147483647,0,0,1,1,2,2,3,3,6,6,8,8,9,9],"right_children":[2,4,6,8,-1,-1,10,-1,12,14,-1,-1,-1,-1,-1],"split_conditions":[1.4319386E-1,-7.083224E-2,-5.3638303E-1,-8.224163E-1,-8.376317E-2,1.05801225E-1,1.7362405E0,5.7507657E-2,1.3775526E-1,-3.269295E-1,-6.0810696E-2,6.6171177E-3,-5.827021E-2,-2.5847208E-2,5.9820306E-2],"split_indices":[55,55,43,71,0,0,33,0,29,47,0,0,0,0,0],"split_type":[0,0,0,0,0,0,0,0,0,0,0,0,0,0,0],"sum_hessian":[1.7900052E2,1.1392695E2,6.507358E1,1.0312371E2,1.0803237E1,9.319684E0,5.575389E1,1.2439842E1,9.068387E1,4.6001923E1,9.751967E0,6.629637E1,2.4387497E1,1.8005016E1,2.7996908E1],"tree_param":{"num_deleted":"0","num_feature":"106","num_nodes":"15","size_leaf_vector":"1"}},{"base_weights":[9.3635224E-4,3.3315875E-2,-8.06422E-2,7.2245724E-2,1.9157212E-3,-3.0441555E-1,5.5322964E-2,-9.642021E-2,9.142278E-3,6.890882E-2,-1.2710819E-3],"categories":[],"categories_nodes":[],"categories_segments":[],"categories_sizes":[],"default_left":[0,0,0,0,0,0,0,0,0,0,0],"id":34,"left_children":[1,3,-1,-1,5,7,9,-1,-1,-1,-1],"loss_changes":[3.8505204E0,3.001312E0,0E0,0E0,2.670205E0,4.7269573E0,4.869074E0,0E0,0E0,0E0,0E0],"parents":[2147483647,0,0,1,1,4,4,5,5,6,6],"right_children":[2,4,-1,-1,6,8,10,-1,-1,-1,-1],"split_conditions":[2.2037575E0,-1.8041788E0,-8.06422E-2,7.2245724E-2,-1.0296613E0,-1.0844209E0,-9.855887E-1,-9.642021E-2,9.142278E-3,6.890882E-2,-1.2710819E-3],"split_indices":[64,50,0,0,63,22,25,0,0,0,0],"split_type":[0,0,0,0,0,0,0,0,0,0,0],"sum_hessian":[1.7761449E2,1.7050945E2,7.1050487E0,7.8039083E0,1.6270554E2,2.317974E1,1.395258E2,9.661769E0,1.3517972E1,1.5027485E1,1.24498314E2],"tree_param":{"num_deleted":"0","num_feature":"106","num_nodes":"11","size_leaf_vector":"1"}},{"base_weights":[1.3486749E-2,1.6588381E-1,-1.2512742E-1,9.417929E-2,8.38464E-2,-2.1504098E-1,3.235922E-1,-7.074481E-2,1.8665059E-1,4.2726073E-2,-2.9357305E-1,7.981979E-2,-1.1482434E-2,8.326469E-2,1.0397746E-2,-5.0352383E-2,4.9326774E-3],"categories":[],"categories_nodes":[],"categories_segments":[],"categories_sizes":[],"default_left":[0,0,0,0,0,0,0,0,0,0,0,0,0,0,0,0,0],"id":35,"left_children":[1,3,5,-1,7,9,11,-1,13,-1,15,-1,-1,-1,-1,-1,-1],"loss_changes":[3.934852E0,4.3632836E0,3.978631E0,0E0,5.5934734E0,3.7635736E0,2.4738846E0,0E0,3.418142E0,0E0,3.1151261E0,0E0,0E0,0E0,0E0,0E0,0E0],"parents":[2147483647,0,0,1,1,2,2,4,4,5,5,6,6,8,8,10,10],"right_children":[2,4,6,-1,8,10,12,-1,14,-1,16,-1,-1,-1,-1,-1,-1],"split_conditions":[-4.24864E-2,-1.0645667E0,9.4088095E-1,9.417929E-2,-1.1465045E0,-1.21512E0,1.3543426E0,-7.074481E-2,-9.85744E-1,4.2726073E-2,3.9826056E-1,7.981979E-2,-1.1482434E-2,8.326469E-2,1.0397746E-2,-5.0352383E-2,4.9326774E-3],"split_indices":[72,21,76,0,20,26,76,0,55,0,52,0,0,0,0,0,0],"split_type":[0,0,0,0,0,0,0,0,0,0,0,0,0,0,0,0,0],"sum_hessian":[1.84095E2,8.793786E1,9.615714E1,9.146332E0,7.879153E1,8.0725204E1,1.5431937E1,9.6797905E0,6.911174E1,9.17762E0,7.1547585E1,8.312266E0,7.1196713E0,1.0239195E1,5.8872547E1,5.200796E1,1.9539621E1],"tree_param":{"num_deleted":"0","num_feature":"106","num_nodes":"17","size_leaf_vector":"1"}},{"base_weights":[4.4407704E-4,3.5556456E-1,-4.972811E-2,7.559178E-2,-2.1954836E-2,-6.9107217E-1,5.415302E-2,-1.752255E-2,-1.1720779E-1,2.0965788E-1,-6.748439E-2,2.3969705E-3,9.381216E-2,-4.827721E-2,1.9032283E-2],"categories":[],"categories_nodes":[],"categories_segments":[],"categories_sizes":[],"default_left":[0,0,0,0,0,0,0,0,0,0,0,0,0,0,0],"id":36,"left_children":[1,3,5,-1,-1,7,9,-1,-1,11,13,-1,-1,-1,-1],"loss_changes":[3.1726573E0,3.4219534E0,1.0379861E1,0E0,0E0,3.125784E0,2.554833E0,0E0,0E0,6.3315215E0,5.791455E0,0E0,0E0,0E0,0E0],"parents":[2147483647,0,0,1,1,2,2,5,5,6,6,9,9,10,10],"right_children":[2,4,6,-1,-1,8,10,-1,-1,12,14,-1,-1,-1,-1],"split_conditions":[-1.3492441E0,6.201246E-1,-7.234472E-1,7.559178E-2,-2.1954836E-2,-3.7023938E-1,4.8606277E-1,-1.752255E-2,-1.1720779E-1,5.2754325E-1,4.3385023E-1,2.3969705E-3,9.381216E-2,-4.827721E-2,1.9032283E-2],"split_indices":[48,4,7,0,0,85,58,0,0,52,7,0,0,0,0],"split_type":[0,0,0,0,0,0,0,0,0,0,0,0,0,0,0],"sum_hessian":[1.7435847E2,2.1077494E1,1.5328098E2,1.3973964E1,7.1035304E0,2.071295E1,1.3256802E2,7.76267E0,1.2950279E1,5.8227177E1,7.434085E1,4.4637363E1,1.3589812E1,2.9828644E1,4.4512207E1],"tree_param":{"num_deleted":"0","num_feature":"106","num_nodes":"15","size_leaf_vector":"1"}},{"base_weights":[4.7670085E-2,9.107696E-2,-3.513901E-1,2.5788662E-1,-1.3282112E-2,1.909969E-2,-8.983E-2,3.8822344E-1,-3.5431463E-2,-1.3040042E-1,3.7791598E-1,-7.6709962E-3,6.4644866E-2,-0E0,-6.1698396E-2,7.5595625E-2,-0E0],"categories":[],"categories_nodes":[],"categories_segments":[],"categories_sizes":[],"default_left":[0,0,0,0,0,0,0,0,0,0,0,0,0,0,0,0,0],"id":37,"left_children":[1,3,5,7,9,-1,-1,11,-1,13,15,-1,-1,-1,-1,-1,-1],"loss_changes":[3.0719304E0,2.8245783E0,3.6951995E0,4.6115603E0,4.5791016E0,0E0,0E0,3.5488787E0,0E0,3.9209752E0,2.1382015E0,0E0,0E0,0E0,0E0,0E0,0E0],"parents":[2147483647,0,0,1,1,2,2,3,3,4,4,7,7,9,9,10,10],"right_children":[2,4,6,8,10,-1,-1,12,-1,14,16,-1,-1,-1,-1,-1,-1],"split_conditions":[1.3499974E0,-3.2105693E-1,-2.3370479E-1,9.7169554E-1,9.008409E-1,1.909969E-2,-8.983E-2,-9.176679E-1,-3.5431463E-2,4.1718468E-1,4.0505123E-1,-7.6709962E-3,6.4644866E-2,-0E0,-6.1698396E-2,7.5595625E-2,-0E0],"split_indices":[6,38,74,4,87,0,0,55,0,6,76,0,0,0,0,0,0],"split_type":[0,0,0,0,0,0,0,0,0,0,0,0,0,0,0,0,0],"sum_hessian":[1.759984E2,1.5965468E2,1.634372E1,6.1245586E1,9.8409096E1,7.3034024E0,9.040318E0,4.995401E1,1.1291575E1,7.6445E1,2.1964092E1,1.2451757E1,3.750225E1,5.7631123E1,1.881388E1,1.2652232E1,9.311861E0],"tree_param":{"num_deleted":"0","num_feature":"106","num_nodes":"17","size_leaf_vector":"1"}},{"base_weights":[1.312296E-2,-5.6672845E-2,4.946371E-2,1.3399744E-1,-1.7511371E-1,5.372261E-1,5.5710375E-2,-9.010754E-2,1.2482122E-2,1.0905808E-1,-4.545365E-3,-4.9911927E-2,1.5696393E-2,2.3535306E-2,-7.299526E-2],"categories":[],"categories_nodes":[],"categories_segments":[],"categories_sizes":[],"default_left":[0,0,0,0,0,0,0,0,0,0,0,0,0,0,0],"id":38,"left_children":[1,-1,3,5,7,9,11,-1,13,-1,-1,-1,-1,-1,-1],"loss_changes":[3.0643334E0,0E0,3.1273391E0,3.6935778E0,4.931022E0,4.215959E0,3.626827E0,0E0,4.0344934E0,0E0,0E0,0E0,0E0,0E0,0E0],"parents":[2147483647,0,0,2,2,3,3,4,4,5,5,6,6,8,8],"right_children":[2,-1,4,6,8,10,12,-1,14,-1,-1,-1,-1,-1,-1],"split_conditions":[-1.0873867E0,-5.6672845E-2,5.168452E-1,-7.8135395E-1,-4.4118646E-1,-1.3672216E-1,-7.7735466E-1,-9.010754E-2,6.8668E-1,1.0905808E-1,-4.545365E-3,-4.9911927E-2,1.5696393E-2,2.3535306E-2,-7.299526E-2],"split_indices":[18,0,72,44,82,55,103,0,5,0,0,0,0,0,0],"split_type":[0,0,0,0,0,0,0,0,0,0,0,0,0,0,0],"sum_hessian":[1.7379082E2,1.1077902E1,1.627129E2,1.1883177E2,4.388114E1,1.8159431E1,1.0067234E2,1.0176631E1,3.370451E1,1.0784727E1,7.3747053E0,1.3020797E1,8.765154E1,2.6662142E1,7.0423675E0],"tree_param":{"num_deleted":"0","num_feature":"106","num_nodes":"15","size_leaf_vector":"1"}},{"base_weights":[-3.1757895E-2,3.019882E-3,-6.957888E-2,9.455661E-2,-2.1603166E-1,1.907772E-1,-3.0503488E-1,-3.8769528E-1,6.2057562E-2,-2.2612026E-2,3.5910055E-2,2.1030381E-2,-7.53524E-2,-1.4010453E-2,-9.485428E-2],"categories":[],"categories_nodes":[],"categories_segments":[],"categories_sizes":[],"default_left":[0,0,0,0,0,0,0,0,0,0,0,0,0,0,0],"id":39,"left_children":[1,3,-1,5,7,9,11,13,-1,-1,-1,-1,-1,-1,-1],"loss_changes":[3.240315E0,3.1713421E0,0E0,4.3636026E0,6.0368023E0,3.8231373E0,3.5628371E0,4.000723E0,0E0,0E0,0E0,0E0,0E0,0E0,0E0],"parents":[2147483647,0,0,1,1,3,3,4,4,5,5,6,6,7,7],"right_children":[2,4,-1,6,8,10,12,14,-1,-1,-1,-1,-1,-1,-1],"split_conditions":[1.6485853E0,4.8009446E-1,-6.957888E-2,9.8562026E-1,1.4054085E0,-1.0582886E0,-7.1949315E-1,-1.4571014E-1,6.2057562E-2,-2.2612026E-2,3.5910055E-2,2.1030381E-2,-7.53524E-2,-1.4010453E-2,-9.485428E-2],"split_indices":[4,6,0,30,77,4,5,24,0,0,0,0,0,0,0],"split_type":[0,0,0,0,0,0,0,0,0,0,0,0,0,0,0],"sum_hessian":[1.6588335E2,1.5674881E2,9.134535E0,1.11274536E2,4.547428E1,9.0302704E1,2.0971832E1,3.733938E1,8.1349E0,1.9716595E1,7.0586105E1,8.490509E0,1.2481322E1,2.324216E1,1.40972185E1],"tree_param":{"num_deleted":"0","num_feature":"106","num_nodes":"15","size_leaf_vector":"1"}},{"base_weights":[-1.1364417E-2,1.4601718E-2,-6.657602E-2,-2.334956E-2,7.589762E-2,2.51218E-1,-1.0563389E-1,7.084459E-2,-3.4849406E-3,-3.6108968E-4,-4.1017417E-2],"categories":[],"categories_nodes":[],"categories_segments":[],"categories_sizes":[],"default_left":[0,0,0,0,0,0,0,0,0,0,0],"id":40,"left_children":[1,3,-1,5,-1,7,9,-1,-1,-1,-1],"loss_changes":[2.5086029E0,3.9745317E0,0E0,3.5693617E0,0E0,3.5258157E0,2.924757E0,0E0,0E0,0E0,0E0],"parents":[2147483647,0,0,1,1,3,3,5,5,6,6],"right_children":[2,4,-1,6,-1,8,10,-1,-1,-1,-1],"split_conditions":[2.1699657E0,1.8571001E0,-6.657602E-2,-8.446462E-1,7.589762E-2,-6.0546535E-1,4.497845E-1,7.084459E-2,-3.4849406E-3,-3.6108968E-4,-4.1017417E-2],"split_indices":[10,103,0,78,0,64,8,0,0,0,0],"split_type":[0,0,0,0,0,0,0,0,0,0,0],"sum_hessian":[1.72375E2,1.6526741E2,7.107596E0,1.5645784E2,8.809573E0,3.532304E1,1.2113479E2,1.5643031E1,1.968001E1,8.544367E1,3.5691116E1],"tree_param":{"num_deleted":"0","num_feature":"106","num_nodes":"11","size_leaf_vector":"1"}},{"base_weights":[-4.033189E-2,7.2403274E-2,-1.4824761E-1,-5.2797865E-2,4.7499987E-1,-2.9415843E-1,1.4799686E-1,4.320052E-2,-6.60784E-2,1.0396588E-1,1.01203155E-2,2.9661713E-2,-4.000861E-1,8.878198E-2,-1.095721E-1,2.025916E-2,-6.7625515E-2,-2.77505E-2,-1.1155607E-1,3.424194E-2,-8.859996E-2],"categories":[],"categories_nodes":[],"categories_segments":[],"categories_sizes":[],"default_left":[0,0,0,0,0,0,0,0,0,0,0,0,0,0,0,0,0,0,0,0,0],"id":41,"left_children":[1,3,5,7,9,11,13,15,-1,-1,-1,-1,17,-1,19,-1,-1,-1,-1,-1,-1],"loss_changes":[2.1251833E0,4.347556E0,3.9165072E0,3.2042074E0,2.956027E0,3.5757542E0,4.7014318E0,4.2979946E0,0E0,0E0,0E0,0E0,4.2306585E0,0E0,5.615411E0,0E0,0E0,0E0,0E0,0E0,0E0],"parents":[2147483647,0,0,1,1,2,2,3,3,4,4,5,5,6,6,7,7,12,12,14,14],"right_children":[2,4,6,8,10,12,14,16,-1,-1,-1,-1,18,-1,20,-1,-1,-1,-1,-1,-1],"split_conditions":[-2.4844056E-1,-4.355911E-1,8.7958103E-1,5.168452E-1,-3.5862747E-1,-9.6062535E-1,4.32024E-1,2.2428738E-1,-6.60784E-2,1.0396588E-1,1.01203155E-2,2.9661713E-2,7.315662E-1,8.878198E-2,1.6141366E0,2.025916E-2,-6.7625515E-2,-2.77505E-2,-1.1155607E-1,3.424194E-2,-8.859996E-2],"split_indices":[82,82,82,72,82,41,41,42,0,0,0,0,26,0,55,0,0,0,0,0,0],"split_type":[0,0,0,0,0,0,0,0,0,0,0,0,0,0,0,0,0,0,0,0,0],"sum_hessian":[1.7217796E2,8.391637E1,8.826159E1,6.44835E1,1.9432873E1,5.9366234E1,2.8895359E1,5.4656742E1,9.826756E0,8.971339E0,1.0461534E1,9.342779E0,5.0023453E1,8.311848E0,2.0583511E1,4.6015812E1,8.640931E0,3.9162952E1,1.0860501E1,1.2880476E1,7.7030354E0],"tree_param":{"num_deleted":"0","num_feature":"106","num_nodes":"21","size_leaf_vector":"1"}},{"base_weights":[-1.0340184E-3,-3.8494074E-1,4.224588E-2,-9.6513934E-2,2.1546662E-2,6.0362898E-2,1.007083E-3,3.8855977E-2,-7.560989E-2,-6.426437E-2,9.588258E-3],"categories":[],"categories_nodes":[],"categories_segments":[],"categories_sizes":[],"default_left":[0,0,0,0,0,0,0,0,0,0,0],"id":42,"left_children":[1,3,5,-1,-1,-1,7,9,-1,-1,-1],"loss_changes":[2.9261305E0,4.4363427E0,2.9172072E0,0E0,0E0,0E0,3.4185789E0,3.2385907E0,0E0,0E0,0E0],"parents":[2147483647,0,0,1,1,2,2,6,6,7,7],"right_children":[2,4,6,-1,-1,-1,8,10,-1,-1,-1],"split_conditions":[-8.422563E-1,2.7810315E-2,-7.559847E-1,-9.6513934E-2,2.1546662E-2,6.0362898E-2,1.234406E0,-1.5704516E0,-7.560989E-2,-6.426437E-2,9.588258E-3],"split_indices":[85,18,85,0,0,0,58,70,0,0,0],"split_type":[0,0,0,0,0,0,0,0,0,0,0],"sum_hessian":[1.7206784E2,1.6867142E1,1.552007E2,9.535767E0,7.3313756E0,1.1630091E1,1.435706E2,1.3648212E2,7.088478E0,8.136602E0,1.2834552E2],"tree_param":{"num_deleted":"0","num_feature":"106","num_nodes":"11","size_leaf_vector":"1"}},{"base_weights":[-2.1666367E-2,-1.0969968E-1,2.0101964E-1,-6.0162913E-2,-7.902829E-2,3.805707E-1,-1.3026449E-1,-1.9144629E-1,2.7400115E-1,-6.912056E-2,7.3913366E-1,-6.2918216E-2,3.7295144E-2,2.6310153E-2,-4.2359848E-2,6.630702E-2,-2.8030459E-2,1.8519234E-2,-3.5926696E-2,1.4582966E-1,6.9767283E-3],"categories":[],"categories_nodes":[],"categories_segments":[],"categories_sizes":[],"default_left":[0,0,0,0,0,0,0,0,0,0,0,0,0,0,0,0,0,0,0,0,0],"id":43,"left_children":[1,3,5,7,-1,9,11,13,15,17,19,-1,-1,-1,-1,-1,-1,-1,-1,-1,-1],"loss_changes":[3.4085805E0,3.2900941E0,2.9955804E0,5.133979E0,0E0,5.325755E0,3.2795987E0,5.6706343E0,4.8156967E0,8.3860606E-1,5.696024E0,0E0,0E0,0E0,0E0,0E0,0E0,0E0,0E0,0E0,0E0],"parents":[2147483647,0,0,1,1,2,2,3,3,5,5,6,6,7,7,8,8,9,9,10,10],"right_children":[2,4,6,8,-1,10,12,14,16,18,20,-1,-1,-1,-1,-1,-1,-1,-1,-1,-1],"split_conditions":[2.569004E-1,1.4677172E0,2.4867941E-1,2.5123692E-1,-7.902829E-2,-6.046649E-1,-3.9271772E-1,-7.559712E-1,-1.443722E-1,7.809379E-1,9.845874E-1,-6.2918216E-2,3.7295144E-2,2.6310153E-2,-4.2359848E-2,6.630702E-2,-2.8030459E-2,1.8519234E-2,-3.5926696E-2,1.4582966E-1,6.9767283E-3],"split_indices":[15,4,52,52,0,52,22,52,15,95,3,0,0,0,0,0,0,0,0,0,0],"split_type":[0,0,0,0,0,0,0,0,0,0,0,0,0,0,0,0,0,0,0,0,0],"sum_hessian":[1.7221452E2,1.24107994E2,4.810653E1,1.1501906E2,9.088937E0,3.1297068E1,1.6809464E1,8.3098434E1,3.1920626E1,1.4118591E1,1.7178476E1,8.897827E0,7.911636E0,2.3184021E1,5.9914413E1,2.0680092E1,1.1240533E1,7.1123986E0,7.0061927E0,9.561936E0,7.61654E0],"tree_param":{"num_deleted":"0","num_feature":"106","num_nodes":"21","size_leaf_vector":"1"}},{"base_weights":[-0E0,8.180694E-2,-1.7520264E-1,8.835254E-2,2.7335089E-2,-7.220776E-2,-2.3157172E-2,6.67819E-2,-3.1837292E-2,5.6284E-2,-2.2966425E-1,-1.8519796E-2,3.0792775E-2,-7.348678E-2,1.2300745E-2],"categories":[],"categories_nodes":[],"categories_segments":[],"categories_sizes":[],"default_left":[0,0,0,0,0,0,0,0,0,0,0,0,0,0,0],"id":44,"left_children":[1,3,5,-1,7,-1,9,-1,11,-1,13,-1,-1,-1,-1],"loss_changes":[2.4304662E0,4.009414E0,3.4300153E0,0E0,3.4364188E0,0E0,4.258431E0,0E0,3.4731545E0,0E0,3.895574E0,0E0,0E0,0E0,0E0],"parents":[2147483647,0,0,1,1,2,2,4,4,6,6,8,8,10,10],"right_children":[2,4,6,-1,8,-1,10,-1,12,-1,14,-1,-1,-1,-1],"split_conditions":[5.771356E-1,-8.096224E-1,3.610851E-2,8.835254E-2,-1.1028593E0,-7.220776E-2,-5.753803E-1,6.67819E-2,9.840156E-2,5.6284E-2,3.5928306E-1,-1.8519796E-2,3.0792775E-2,-7.348678E-2,1.2300745E-2],"split_indices":[50,75,22,0,51,0,52,0,50,0,47,0,0,0,0],"split_type":[0,0,0,0,0,0,0,0,0,0,0,0,0,0,0],"sum_hessian":[1.6724147E2,1.1417293E2,5.306854E1,7.669819E0,1.06503105E2,1.2995992E1,4.0072548E1,1.0035976E1,9.646713E1,1.1324984E1,2.8747564E1,6.828146E1,2.8185669E1,1.3105222E1,1.5642342E1],"tree_param":{"num_deleted":"0","num_feature":"106","num_nodes":"15","size_leaf_vector":"1"}},{"base_weights":[-2.577593E-2,-8.515095E-2,2.8542987E-1,-3.202987E-2,-9.057722E-2,5.694977E-1,-2.5399785E-2,1.0647589E-2,-7.750671E-2,1.0550915E-1,8.896351E-3,-1.0344414E-2,5.3419158E-2],"categories":[],"categories_nodes":[],"categories_segments":[],"categories_sizes":[],"default_left":[0,0,0,0,0,0,0,0,0,0,0,0,0],"id":45,"left_children":[1,3,5,7,-1,9,-1,11,-1,-1,-1,-1,-1],"loss_changes":[3.1875484E0,5.080588E0,4.048332E0,3.638206E0,0E0,2.5918374E0,0E0,5.4678373E0,0E0,0E0,0E0,0E0,0E0],"parents":[2147483647,0,0,1,1,2,2,3,3,5,5,7,7],"right_children":[2,4,6,8,-1,10,-1,12,-1,-1,-1,-1,-1],"split_conditions":[8.402993E-1,8.135936E-1,4.3226445E-1,1.2290003E0,-9.057722E-2,1.9580698E0,-2.5399785E-2,3.9851165E-1,-7.750671E-2,1.0550915E-1,8.896351E-3,-1.0344414E-2,5.3419158E-2],"split_indices":[87,21,76,20,0,84,0,55,0,0,0,0,0],"split_type":[0,0,0,0,0,0,0,0,0,0,0,0,0],"sum_hessian":[1.7127501E2,1.447129E2,2.6562094E1,1.3518634E2,9.526568E0,1.693818E1,9.623912E0,1.2716517E2,8.021176E0,9.820614E0,7.117568E0,1.044542E2,2.2710968E1],"tree_param":{"num_deleted":"0","num_feature":"106","num_nodes":"13","size_leaf_vector":"1"}},{"base_weights":[6.847133E-3,5.9501883E-2,-2.961308E-1,7.981884E-3,7.01072E-2,4.9749747E-2,-6.289718E-1,-5.2280474E-2,6.0646087E-2,-1.1685327E-1,-1.5422599E-2,8.5640654E-2,-3.948396E-4],"categories":[],"categories_nodes":[],"categories_segments":[],"categories_sizes":[],"default_left":[0,0,0,0,0,0,0,0,0,0,0,0,0],"id":46,"left_children":[1,3,5,7,-1,-1,9,-1,11,-1,-1,-1,-1],"loss_changes":[2.7521796E0,3.948193E0,6.3107204E0,3.1741734E0,0E0,0E0,2.8446898E0,0E0,5.206465E0,0E0,0E0,0E0,0E0],"parents":[2147483647,0,0,1,1,2,2,3,3,6,6,8,8],"right_children":[2,4,6,8,-1,-1,10,-1,12,-1,-1,-1,-1],"split_conditions":[1.7722341E0,9.4164735E-1,-4.502414E-1,-1.3127297E0,7.01072E-2,4.9749747E-2,1.4526823E0,-5.2280474E-2,-9.0501344E-1,-1.1685327E-1,-1.5422599E-2,8.5640654E-2,-3.948396E-4],"split_indices":[44,75,76,42,0,0,38,0,42,0,0,0,0],"split_type":[0,0,0,0,0,0,0,0,0,0,0,0,0],"sum_hessian":[1.718943E2,1.4740956E2,2.4484745E1,1.3532817E2,1.2081382E1,7.6352487E0,1.6849495E1,1.3386499E1,1.2194167E2,9.297787E0,7.551709E0,1.0107612E1,1.1183406E2],"tree_param":{"num_deleted":"0","num_feature":"106","num_nodes":"13","size_leaf_vector":"1"}},{"base_weights":[2.1628583E-2,-9.742959E-2,1.63448E-1,2.4798702E-1,-2.848563E-1,-4.5014642E-2,2.6912338E-1,5.4205525E-1,-1.6942767E-2,-2.3373961E-2,-7.1692383E-1,-5.191822E-2,3.8714412E-1,1.12708494E-1,8.598346E-3,2.1596313E-2,-6.735843E-2,-1.3399489E-1,-3.355572E-2,5.786149E-2,-1.4650663E-2],"categories":[],"categories_nodes":[],"categories_segments":[],"categories_sizes":[],"default_left":[0,0,0,0,0,0,0,0,0,0,0,0,0,0,0,0,0,0,0,0,0],"id":47,"left_children":[1,3,5,7,9,-1,11,13,-1,15,17,-1,19,-1,-1,-1,-1,-1,-1,-1,-1],"loss_changes":[2.9191148E0,6.1276884E0,4.5892725E0,3.9203165E0,6.830931E0,0E0,5.6972036E0,3.4346128E0,0E0,4.44306E0,3.5543423E0,0E0,2.8945074E0,0E0,0E0,0E0,0E0,0E0,0E0,0E0,0E0],"parents":[2147483647,0,0,1,1,2,2,3,3,4,4,6,6,7,7,9,9,10,10,12,12],"right_children":[2,4,6,8,10,-1,12,14,-1,16,18,-1,20,-1,-1,-1,-1,-1,-1,-1,-1],"split_conditions":[-1.06129594E-1,-5.262167E-1,-1.0197015E0,2.1945642E-1,-1.1701556E-1,-4.5014642E-2,-1.3923135E0,-7.3233664E-1,-1.6942767E-2,6.596949E-1,1.3028983E0,-5.191822E-2,1.3437839E0,1.12708494E-1,8.598346E-3,2.1596313E-2,-6.735843E-2,-1.3399489E-1,-3.355572E-2,5.786149E-2,-1.4650663E-2],"split_indices":[52,63,63,68,75,0,5,4,0,57,103,0,33,0,0,0,0,0,0,0,0],"split_type":[0,0,0,0,0,0,0,0,0,0,0,0,0,0,0,0,0,0,0,0,0],"sum_hessian":[1.7055045E2,9.250222E1,7.8048225E1,3.2236168E1,6.0266052E1,1.2228769E1,6.581946E1,1.8284348E1,1.3951822E1,3.8345398E1,2.1920652E1,8.96983E0,5.684963E1,9.258077E0,9.02627E0,2.8174877E1,1.0170522E1,1.0521487E1,1.1399165E1,4.8118984E1,8.730643E0],"tree_param":{"num_deleted":"0","num_feature":"106","num_nodes":"21","size_leaf_vector":"1"}},{"base_weights":[5.685456E-2,-3.582926E-3,4.0140152E-1,5.7045627E-2,-5.277545E-1,7.286437E-1,-1.7596008E-2,-5.3014494E-2,1.10787034E-1,-1.1266881E-1,-6.1002155E-3,4.3718386E-2,1.1852047E-1,8.562356E-2,6.2626973E-3],"categories":[],"categories_nodes":[],"categories_segments":[],"categories_sizes":[],"default_left":[0,0,0,0,0,0,0,0,0,0,0,0,0,0,0],"id":48,"left_children":[1,3,5,7,9,11,-1,-1,13,-1,-1,-1,-1,-1,-1],"loss_changes":[3.5798402E0,4.695346E0,4.7589593E0,3.5272534E0,2.8601327E0,1.0451269E0,0E0,0E0,4.0971556E0,0E0,0E0,0E0,0E0,0E0,0E0],"parents":[2147483647,0,0,1,1,2,2,3,3,4,4,5,5,8,8],"right_children":[2,4,6,8,10,12,-1,-1,14,-1,-1,-1,-1,-1,-1],"split_conditions":[1.0476183E0,8.6396754E-1,5.168452E-1,-8.277813E-1,8.83256E-1,-1.3732532E-1,-1.7596008E-2,-5.3014494E-2,-7.431909E-1,-1.1266881E-1,-6.1002155E-3,4.3718386E-2,1.1852047E-1,8.562356E-2,6.2626973E-3],"split_indices":[48,48,72,85,9,72,0,0,85,0,0,0,0,0,0],"split_type":[0,0,0,0,0,0,0,0,0,0,0,0,0,0,0],"sum_hessian":[1.6893356E2,1.443179E2,2.461565E1,1.2998367E2,1.433423E1,1.53204365E1,9.295214E0,1.1758522E1,1.1822515E2,7.065066E0,7.269164E0,7.526665E0,7.7937713E0,9.333788E0,1.08891365E2],"tree_param":{"num_deleted":"0","num_feature":"106","num_nodes":"15","size_leaf_vector":"1"}},{"base_weights":[-1.6360387E-2,3.8675925E-1,-6.7209564E-2,2.952145E-3,9.1529846E-2,-1.18065774E-1,3.4227285E-1,-1.7880625E-1,2.37932E-1,1.4408818E-3,8.321374E-2,3.2127917E-2,-2.816182E-2,8.437627E-2,-1.1040536E-2],"categories":[],"categories_nodes":[],"categories_segments":[],"categories_sizes":[],"default_left":[0,0,0,0,0,0,0,0,0,0,0,0,0,0,0],"id":49,"left_children":[1,3,5,-1,-1,7,9,11,13,-1,-1,-1,-1,-1,-1],"loss_changes":[3.5175612E0,2.5144129E0,3.2189956E0,0E0,0E0,3.0139918E0,1.8952003E0,3.0145116E0,3.235138E0,0E0,0E0,0E0,0E0,0E0,0E0],"parents":[2147483647,0,0,1,1,2,2,5,5,6,6,7,7,8,8],"right_children":[2,4,6,-1,-1,8,10,12,14,-1,-1,-1,-1,-1,-1],"split_conditions":[-1.440922E0,-1.6137162E-1,1.15174E0,2.952145E-3,9.1529846E-2,1.0396821E0,7.133114E-1,-8.1373084E-1,1.36491E0,1.4408818E-3,8.321374E-2,3.2127917E-2,-2.816182E-2,8.437627E-2,-1.1040536E-2],"split_indices":[48,88,48,0,0,76,20,92,76,0,0,0,0,0,0],"split_type":[0,0,0,0,0,0,0,0,0,0,0,0,0,0,0],"sum_hessian":[1.7089339E2,1.8181597E1,1.5271179E2,9.939313E0,8.242283E0,1.3669113E2,1.6020657E1,1.1743326E2,1.9257874E1,8.935829E0,7.084827E0,1.2439522E1,1.0499374E2,7.647301E0,1.1610573E1],"tree_param":{"num_deleted":"0","num_feature":"106","num_nodes":"15","size_leaf_vector":"1"}},{"base_weights":[-5.5169077E-3,-3.3458814E-1,3.3327155E-2,3.2994155E-2,-1.0558648E-1,6.013798E-2,-5.8525363E-3,-7.475667E-2,3.017296E-2,7.852558E-2,-2.3802638E-3],"categories":[],"categories_nodes":[],"categories_segments":[],"categories_sizes":[],"default_left":[0,0,0,0,0,0,0,0,0,0,0],"id":50,"left_children":[1,3,5,-1,-1,-1,7,-1,9,-1,-1],"loss_changes":[2.2235022E0,6.4138594E0,2.8629334E0,0E0,0E0,0E0,3.2411513E0,0E0,4.2976847E0,0E0,0E0],"parents":[2147483647,0,0,1,1,2,2,6,6,8,8],"right_children":[2,4,6,-1,-1,-1,8,-1,10,-1,-1],"split_conditions":[-8.6700463E-1,-1.8479964E-1,-8.096224E-1,3.2994155E-2,-1.0558648E-1,6.013798E-2,-7.722546E-1,-7.475667E-2,-7.326055E-1,7.852558E-2,-2.3802638E-3],"split_indices":[103,51,75,0,0,0,75,0,67,0,0],"split_type":[0,0,0,0,0,0,0,0,0,0,0],"sum_hessian":[1.6972025E2,1.7386827E1,1.5233342E2,8.357333E0,9.029494E0,1.1057948E1,1.4127547E2,7.046782E0,1.3422868E2,9.208041E0,1.2502064E2],"tree_param":{"num_deleted":"0","num_feature":"106","num_nodes":"11","size_leaf_vector":"1"}},{"base_weights":[-5.2187946E-2,-1.1156006E-1,2.3001206E-1,-3.404532E-2,-3.9883775E-1,1.0579106E-1,-4.496181E-2,2.5009388E-2,-8.768598E-2,-0E0,-5.548921E-1,-4.6155937E-2,5.002242E-2,5.232927E-2,-6.554168E-3,-2.221215E-3,-9.884914E-2],"categories":[],"categories_nodes":[],"categories_segments":[],"categories_sizes":[],"default_left":[0,0,0,0,0,0,0,0,0,0,0,0,0,0,0,0,0],"id":51,"left_children":[1,3,5,7,9,-1,11,13,-1,-1,15,-1,-1,-1,-1,-1,-1],"loss_changes":[2.862543E0,3.0926878E0,5.424424E0,4.727594E0,1.9023814E0,0E0,3.553305E0,3.4914699E0,0E0,0E0,3.003169E0,0E0,0E0,0E0,0E0,0E0,0E0],"parents":[2147483647,0,0,1,1,2,2,3,3,4,4,6,6,7,7,10,10],"right_children":[2,4,6,8,10,-1,12,14,-1,-1,16,-1,-1,-1,-1,-1,-1],"split_conditions":[9.327849E-1,2.2664106E-1,4.019131E-1,1.3193635E0,-5.591802E-1,1.0579106E-1,9.936618E-1,-7.6988435E-1,-8.768598E-2,-0E0,-4.2068207E-1,-4.6155937E-2,5.002242E-2,5.232927E-2,-6.554168E-3,-2.221215E-3,-9.884914E-2],"split_indices":[82,82,41,4,70,0,48,32,0,0,72,0,0,0,0,0,0],"split_type":[0,0,0,0,0,0,0,0,0,0,0,0,0,0,0,0,0],"sum_hessian":[1.690245E2,1.4043698E2,2.8587526E1,1.1175049E2,2.8686487E1,7.937156E0,2.065037E1,1.03774414E2,7.976081E0,8.171245E0,2.0515244E1,1.2119782E1,8.530588E0,1.631734E1,8.745707E1,7.330674E0,1.3184569E1],"tree_param":{"num_deleted":"0","num_feature":"106","num_nodes":"17","size_leaf_vector":"1"}},{"base_weights":[-9.0279436E-4,-5.5066515E-2,3.494371E-2,-3.266933E-1,8.9024045E-2,-8.5464073E-4,-8.2779065E-2,2.181495E-1,-1.1411967E-1,3.4568936E-2,-3.891252E-2,-4.3905694E-2,2.8530186E-2],"categories":[],"categories_nodes":[],"categories_segments":[],"categories_sizes":[],"default_left":[0,0,0,0,0,0,0,0,0,0,0,0,0],"id":52,"left_children":[1,-1,3,5,7,-1,-1,9,11,-1,-1,-1,-1],"loss_changes":[2.847302E0,0E0,3.1006978E0,2.3116558E0,3.6737568E0,0E0,0E0,3.3307395E0,4.906556E0,0E0,0E0,0E0,0E0],"parents":[2147483647,0,0,2,2,3,3,4,4,7,7,8,8],"right_children":[2,-1,4,6,8,-1,-1,10,12,-1,-1,-1,-1],"split_conditions":[-1.3781656E0,-5.5066515E-2,-8.061519E-1,-8.3946604E-1,2.4886876E-1,-8.5464073E-4,-8.2779065E-2,1.2229692E0,8.99872E-1,3.4568936E-2,-3.891252E-2,-4.3905694E-2,2.8530186E-2],"split_indices":[4,0,73,99,76,0,0,48,76,0,0,0,0],"split_type":[0,0,0,0,0,0,0,0,0,0,0,0,0],"sum_hessian":[1.6887547E2,1.1604275E1,1.5727121E2,1.956297E1,1.3770824E2,1.10944195E1,8.468551E0,8.444827E1,5.3259964E1,7.538362E1,9.064649E0,3.118892E1,2.2071047E1],"tree_param":{"num_deleted":"0","num_feature":"106","num_nodes":"13","size_leaf_vector":"1"}},{"base_weights":[3.3833897E-3,3.341187E-2,-6.960502E-2,-4.833285E-2,2.635771E-1,1.4200812E-2,-1.030569E-1,6.728838E-1,1.037903E-2,1.8425476E-2,-1.8558634E-2,1.301742E-1,2.1919599E-2,-8.025226E-2,3.4225214E-2],"categories":[],"categories_nodes":[],"categories_segments":[],"categories_sizes":[],"default_left":[0,0,0,0,0,0,0,0,0,0,0,0,0,0,0],"id":53,"left_children":[1,3,-1,5,7,9,-1,11,13,-1,-1,-1,-1,-1,-1],"loss_changes":[2.9133472E0,3.0667708E0,0E0,6.1511383E0,4.351637E0,2.6535568E0,0E0,2.9379468E0,5.2960258E0,0E0,0E0,0E0,0E0,0E0,0E0],"parents":[2147483647,0,0,1,1,3,3,4,4,5,5,7,7,8,8],"right_children":[2,4,-1,6,8,10,-1,12,14,-1,-1,-1,-1,-1,-1],"split_conditions":[2.166008E0,1.2434164E-2,-6.960502E-2,-8.381982E-2,-1.1794077E-1,1.7893124E-1,-1.030569E-1,7.337973E-2,1.5753205E-1,1.8425476E-2,-1.8558634E-2,1.301742E-1,2.1919599E-2,-8.025226E-2,3.4225214E-2],"split_indices":[27,89,0,16,83,63,0,76,5,0,0,0,0,0,0],"split_type":[0,0,0,0,0,0,0,0,0,0,0,0,0,0,0],"sum_hessian":[1.673068E2,1.6017674E2,7.1300497E0,1.1846031E2,4.1716434E1,1.10772545E2,7.687765E0,1.5158887E1,2.6557547E1,6.106384E1,4.970871E1,7.4675417E0,7.6913447E0,7.133178E0,1.9424368E1],"tree_param":{"num_deleted":"0","num_feature":"106","num_nodes":"15","size_leaf_vector":"1"}},{"base_weights":[-5.516062E-2,-1.711839E-2,-4.211315E-1,4.9569756E-2,-5.837472E-2,-8.623493E-3,-8.525775E-2,-3.609243E-1,2.495383E-3,1.9407978E-2,-8.8302605E-2,-1.6669676E-2,1.6472999E-2],"categories":[],"categories_nodes":[],"categories_segments":[],"categories_sizes":[],"default_left":[0,0,0,0,0,0,0,0,0,0,0,0,0],"id":54,"left_children":[1,3,5,-1,7,-1,-1,9,11,-1,-1,-1,-1],"loss_changes":[2.2685342E0,2.6901276E0,1.4268465E0,0E0,2.614613E0,0E0,0E0,4.826042E0,2.253601E0,0E0,0E0,0E0,0E0],"parents":[2147483647,0,0,1,1,2,2,4,4,7,7,8,8],"right_children":[2,4,6,-1,8,-1,-1,10,12,-1,-1,-1,-1],"split_conditions":[1.512804E0,-1.4796876E0,-5.185517E-1,4.9569756E-2,-6.930657E-1,-8.623493E-3,-8.525775E-2,-5.3638303E-1,-5.2864635E-1,1.9407978E-2,-8.8302605E-2,-1.6669676E-2,1.6472999E-2],"split_indices":[78,48,25,0,7,0,0,43,103,0,0,0,0],"split_type":[0,0,0,0,0,0,0,0,0,0,0,0,0],"sum_hessian":[1.6560753E2,1.512095E2,1.4398023E1,1.2231309E1,1.389782E2,7.245756E0,7.152267E0,2.2727343E1,1.16250854E2,9.61953E0,1.3107812E1,5.6353123E1,5.989773E1],"tree_param":{"num_deleted":"0","num_feature":"106","num_nodes":"13","size_leaf_vector":"1"}},{"base_weights":[4.7549177E-2,1.8704915E-1,-5.6703873E-2,-1.7442131E-1,3.538625E-1,2.1551321E-1,-1.743334E-1,-6.0143135E-2,2.4541678E-2,5.414602E-1,6.9139716E-3,-0E0,8.331387E-2,-2.6476592E-1,3.5077464E-2,9.8419614E-2,1.9018031E-3,4.483697E-2,-5.3923044E-2,3.3061508E-2,-5.689458E-2,-5.354071E-2,1.2430334E-2],"categories":[],"categories_nodes":[],"categories_segments":[],"categories_sizes":[],"default_left":[0,0,0,0,0,0,0,0,0,0,0,0,0,0,0,0,0,0,0,0,0,0,0],"id":55,"left_children":[1,3,5,7,9,11,13,-1,-1,15,17,19,-1,21,-1,-1,-1,-1,-1,-1,-1,-1,-1],"loss_changes":[2.4960918E0,4.502798E0,3.160337E0,3.0598044E0,3.2420435E0,3.0194201E0,2.9862814E0,0E0,0E0,4.695696E0,3.3390467E0,2.9319577E0,0E0,3.9895444E0,0E0,0E0,0E0,0E0,0E0,0E0,0E0,0E0,0E0],"parents":[2147483647,0,0,1,1,2,2,3,3,4,4,5,5,6,6,9,9,10,10,11,11,13,13],"right_children":[2,4,6,8,10,12,14,-1,-1,16,18,20,-1,22,-1,-1,-1,-1,-1,-1,-1,-1,-1],"split_conditions":[-1.5054724E-1,-4.8376906E-1,7.1808827E-1,-7.204377E-1,6.2876016E-1,5.0025042E-2,1.6519206E0,-6.0143135E-2,2.4541678E-2,2.4447347E-1,-8.001739E-2,-9.057421E-2,8.331387E-2,9.1797096E-1,3.5077464E-2,9.8419614E-2,1.9018031E-3,4.483697E-2,-5.3923044E-2,3.3061508E-2,-5.689458E-2,-5.354071E-2,1.2430334E-2],"split_indices":[68,12,104,68,78,98,16,0,0,70,53,74,0,14,0,0,0,0,0,0,0,0,0],"split_type":[0,0,0,0,0,0,0,0,0,0,0,0,0,0,0,0,0,0,0,0,0,0,0],"sum_hessian":[1.690062E2,7.235445E1,9.665175E1,2.2643282E1,4.9711166E1,2.8655413E1,6.799634E1,1.2126964E1,1.0516318E1,3.1714195E1,1.7996971E1,2.0533958E1,8.121453E0,5.750014E1,1.0496198E1,2.0234364E1,1.1479832E1,1.0199461E1,7.79751E0,1.3329799E1,7.20416E0,3.856687E1,1.893327E1],"tree_param":{"num_deleted":"0","num_feature":"106","num_nodes":"23","size_leaf_vector":"1"}},{"base_weights":[2.2856166E-4,-3.576625E-1,4.6018742E-2,1.3604784E-2,-9.412789E-2,7.616185E-2,9.341524E-3,4.9586747E-2,-6.882638E-2,7.711152E-2,1.0387092E-3],"categories":[],"categories_nodes":[],"categories_segments":[],"categories_sizes":[],"default_left":[0,0,0,0,0,0,0,0,0,0,0],"id":56,"left_children":[1,3,5,-1,-1,-1,7,9,-1,-1,-1],"loss_changes":[2.6848433E0,3.8850653E0,3.1072888E0,0E0,0E0,0E0,3.2536795E0,3.1278381E0,0E0,0E0,0E0],"parents":[2147483647,0,0,1,1,2,2,6,6,7,7],"right_children":[2,4,6,-1,-1,-1,8,10,-1,-1,-1],"split_conditions":[-8.644917E-1,2.3712969E-1,-1.5755776E0,1.3604784E-2,-9.412789E-2,7.616185E-2,1.95899E0,-1.0267076E0,-6.882638E-2,7.711152E-2,1.0387092E-3],"split_indices":[103,25,7,0,0,0,62,12,0,0,0],"split_type":[0,0,0,0,0,0,0,0,0,0,0],"sum_hessian":[1.6372818E2,1.7551647E1,1.4617653E2,8.580454E0,8.971193E0,7.4572873E0,1.3871925E2,1.3077644E2,7.942806E0,7.3368506E0,1.2343959E2],"tree_param":{"num_deleted":"0","num_feature":"106","num_nodes":"11","size_leaf_vector":"1"}},{"base_weights":[-3.8839675E-2,-8.979251E-2,2.0942771E-1,-1.464023E-1,2.2986126E-1,8.375269E-2,-1.4911484E-2,-8.681176E-2,-7.899086E-2,-3.0268596E-2,7.901763E-2,-3.108692E-2,3.6111698E-2,-3.519109E-2,9.941845E-3],"categories":[],"categories_nodes":[],"categories_segments":[],"categories_sizes":[],"default_left":[0,0,0,0,0,0,0,0,0,0,0,0,0,0,0],"id":57,"left_children":[1,3,5,7,9,-1,11,13,-1,-1,-1,-1,-1,-1,-1],"loss_changes":[2.1178875E0,2.5496085E0,3.1893182E0,3.509867E0,4.569082E0,0E0,1.6383508E0,3.8374047E0,0E0,0E0,0E0,0E0,0E0,0E0,0E0],"parents":[2147483647,0,0,1,1,2,2,3,3,4,4,6,6,7,7],"right_children":[2,4,6,8,10,-1,12,14,-1,-1,-1,-1,-1,-1,-1],"split_conditions":[8.167201E-1,9.4088095E-1,1.2009683E0,1.9394942E-1,-6.779263E-1,8.375269E-2,-1.7080884E-1,-3.3206108E-1,-7.899086E-2,-3.0268596E-2,7.901763E-2,-3.108692E-2,3.6111698E-2,-3.519109E-2,9.941845E-3],"split_indices":[87,76,37,84,31,0,22,8,0,0,0,0,0,0,0],"split_type":[0,0,0,0,0,0,0,0,0,0,0,0,0,0,0],"sum_hessian":[1.6588206E2,1.384986E2,2.7383465E1,1.1838736E2,2.0111238E1,8.093679E0,1.9289785E1,1.0726451E2,1.1122849E1,9.548986E0,1.0562251E1,1.115972E1,8.130065E0,4.8323776E1,5.8940735E1],"tree_param":{"num_deleted":"0","num_feature":"106","num_nodes":"15","size_leaf_vector":"1"}},{"base_weights":[4.2504653E-2,6.645687E-2,9.233829E-3,-1.6228236E-1,9.953357E-2,-4.7600266E-1,3.5897635E-2,1.6714452E-1,-4.7985364E-2,-4.7284057E-3,-9.578439E-2,4.847681E-2,-1.8802345E-2,2.9638344E-2,-3.445481E-2],"categories":[],"categories_nodes":[],"categories_segments":[],"categories_sizes":[],"default_left":[0,0,0,0,0,0,0,0,0,0,0,0,0,0,0],"id":58,"left_children":[1,-1,3,5,7,9,11,13,-1,-1,-1,-1,-1,-1,-1],"loss_changes":[2.699911E0,0E0,2.3888946E0,3.3547993E0,3.4751341E0,2.8072639E0,2.4415143E0,3.345391E0,0E0,0E0,0E0,0E0,0E0,0E0,0E0],"parents":[2147483647,0,0,2,2,3,3,4,4,5,5,6,6,7,7],"right_children":[2,-1,4,6,8,10,12,14,-1,-1,-1,-1,-1,-1,-1],"split_conditions":[-1.5755776E0,6.645687E-2,-3.46108E-1,-5.032456E-1,1.7574867E0,-7.4072057E-1,-2.0342468E-1,1.1207728E0,-4.7985364E-2,-4.7284057E-3,-9.578439E-2,4.847681E-2,-1.8802345E-2,2.9638344E-2,-3.445481E-2],"split_indices":[7,0,5,62,75,62,4,53,0,0,0,0,0,0,0],"split_type":[0,0,0,0,0,0,0,0,0,0,0,0,0,0,0],"sum_hessian":[1.6132169E2,8.716491E0,1.526052E2,5.197632E1,1.0062888E2,1.9775028E1,3.2201286E1,8.939239E1,1.1236498E1,9.005179E0,1.0769849E1,1.0862309E1,2.1338978E1,7.660483E1,1.2787556E1],"tree_param":{"num_deleted":"0","num_feature":"106","num_nodes":"15","size_leaf_vector":"1"}},{"base_weights":[1.0612562E-2,9.5404774E-2,-2.0122816E-1,-3.4946662E-1,1.6935268E-1,-9.573475E-2,-4.9712382E-2,9.043489E-3,-9.667012E-2,5.4835707E-1,9.132357E-2,3.0482182E-1,-3.7314734E-1,6.7633092E-3,1.1199664E-1,-1.3105794E-2,3.0148873E-2,-5.9675416E-3,6.6189505E-2,-7.516073E-4,-8.498839E-2],"categories":[],"categories_nodes":[],"categories_segments":[],"categories_sizes":[],"default_left":[0,0,0,0,0,0,0,0,0,0,0,0,0,0,0,0,0,0,0,0,0],"id":59,"left_children":[1,3,5,7,9,-1,11,-1,-1,13,15,17,19,-1,-1,-1,-1,-1,-1,-1,-1],"loss_changes":[3.0309765E0,4.0276194E0,4.221599E0,3.506411E0,2.9844503E0,0E0,4.6549397E0,0E0,0E0,3.1569862E0,2.873506E0,1.7632947E0,2.539716E0,0E0,0E0,0E0,0E0,0E0,0E0,0E0,0E0],"parents":[2147483647,0,0,1,1,2,2,3,3,4,4,6,6,9,9,10,10,11,11,12,12],"right_children":[2,4,6,8,10,-1,12,-1,-1,14,16,18,20,-1,-1,-1,-1,-1,-1,-1,-1],"split_conditions":[4.5115155E-1,-1.0844209E0,5.884055E-1,2.1142817E-1,-7.7544105E-1,-9.573475E-2,-1.3278088E-1,9.043489E-3,-9.667012E-2,-8.1457233E-1,-3.2616487E-1,-6.111734E-1,-2.3209251E-1,6.7633092E-3,1.1199664E-1,-1.3105794E-2,3.0148873E-2,-5.9675416E-3,6.6189505E-2,-7.516073E-4,-8.498839E-2],"split_indices":[74,22,74,42,19,0,4,0,0,19,62,33,68,0,0,0,0,0,0,0,0],"split_type":[0,0,0,0,0,0,0,0,0,0,0,0,0,0,0,0,0,0,0,0,0],"sum_hessian":[1.6726E2,1.2017854E2,4.708145E1,1.640539E1,1.03773155E2,8.538301E0,3.8543148E1,8.812728E0,7.5926614E0,1.6469252E1,8.73039E1,1.826752E1,2.0275629E1,7.8466997E0,8.622552E0,3.8595833E1,4.8708065E1,7.657754E0,1.0609767E1,1.0307372E1,9.968258E0],"tree_param":{"num_deleted":"0","num_feature":"106","num_nodes":"21","size_leaf_vector":"1"}},{"base_weights":[-1.25483265E-2,1.1073501E-1,-1.3777564E-1,-4.7282528E-2,2.1325043E-1,-5.4701114E-1,1.7589401E-2,2.870934E-1,-3.617525E-2,-1.0379792E-1,-2.4273755E-2,1.8517615E-1,-4.562257E-1,4.3785807E-2,-3.3786707E-2,4.5326273E-3,9.956175E-2,-9.562405E-3,-8.69967E-2],"categories":[],"categories_nodes":[],"categories_segments":[],"categories_sizes":[],"default_left":[0,0,0,0,0,0,0,0,0,0,0,0,0,0,0,0,0,0,0],"id":60,"left_children":[1,3,5,-1,7,9,11,13,-1,-1,-1,15,17,-1,-1,-1,-1,-1,-1],"loss_changes":[2.6303425E0,4.486043E0,5.4537506E0,0E0,2.81459E0,2.2987561E0,5.000451E0,2.9193096E0,0E0,0E0,0E0,4.3331175E0,1.5211322E0,0E0,0E0,0E0,0E0,0E0,0E0],"parents":[2147483647,0,0,1,1,2,2,4,4,5,5,6,6,7,7,11,11,12,12],"right_children":[2,4,6,-1,8,10,12,14,-1,-1,-1,16,18,-1,-1,-1,-1,-1,-1],"split_conditions":[1.0197604E0,-5.238601E-1,-5.969216E-1,-4.7282528E-2,1.1699615E0,-1.8029888E-1,4.497845E-1,1.3711238E0,-3.617525E-2,-1.0379792E-1,-2.4273755E-2,1.7270492E-1,-3.9540328E-2,4.3785807E-2,-3.3786707E-2,4.5326273E-3,9.956175E-2,-9.562405E-3,-8.69967E-2],"split_indices":[49,53,74,0,74,11,8,11,0,0,0,14,76,0,0,0,0,0,0],"split_type":[0,0,0,0,0,0,0,0,0,0,0,0,0,0,0,0,0,0,0],"sum_hessian":[1.6821278E2,8.442024E1,8.379254E1,1.3606552E1,7.081369E1,2.2541222E1,6.125132E1,6.2485687E1,8.327999E0,1.0789746E1,1.1751476E1,4.5853374E1,1.5397946E1,5.543646E1,7.049232E0,3.8306164E1,7.5472093E0,7.107832E0,8.290114E0],"tree_param":{"num_deleted":"0","num_feature":"106","num_nodes":"19","size_leaf_vector":"1"}},{"base_weights":[-8.2024E-3,-3.5776194E-2,5.8437936E-2,8.845643E-2,-1.3580465E-1,-2.767828E-1,2.356862E-1,-2.419547E-1,1.4840278E-1,3.450905E-2,-7.600814E-2,9.275559E-3,1.2076305E-1,3.1681623E-2,-4.3345716E-2,9.176574E-2,-1.8636502E-2],"categories":[],"categories_nodes":[],"categories_segments":[],"categories_sizes":[],"default_left":[0,0,0,0,0,0,0,0,0,0,0,0,0,0,0,0,0],"id":61,"left_children":[1,3,-1,5,7,9,11,13,15,-1,-1,-1,-1,-1,-1,-1,-1],"loss_changes":[2.26224E0,2.0048733E0,0E0,3.907023E0,2.7443705E0,4.405363E0,6.125621E0,4.0740423E0,4.801611E0,0E0,0E0,0E0,0E0,0E0,0E0,0E0,0E0],"parents":[2147483647,0,0,1,1,3,3,4,4,5,5,6,6,7,7,8,8],"right_children":[2,4,-1,6,8,10,12,14,16,-1,-1,-1,-1,-1,-1,-1,-1],"split_conditions":[1.692135E0,-1.5054724E-1,5.8437936E-2,-5.969216E-1,5.3848034E-1,-5.504155E-1,3.654671E-1,-7.744014E-1,-1.2958889E-1,3.450905E-2,-7.600814E-2,9.275559E-3,1.2076305E-1,3.1681623E-2,-4.3345716E-2,9.176574E-2,-1.8636502E-2],"split_indices":[74,68,0,74,39,21,11,38,82,0,0,0,0,0,0,0,0],"split_type":[0,0,0,0,0,0,0,0,0,0,0,0,0,0,0,0,0],"sum_hessian":[1.6671024E2,1.5898694E2,7.7232995E0,7.051955E1,8.8467384E1,1.9811975E1,5.0707573E1,6.477483E1,2.369255E1,7.6379333E0,1.2174043E1,4.3083115E1,7.624458E0,1.1964067E1,5.281077E1,7.428746E0,1.6263805E1],"tree_param":{"num_deleted":"0","num_feature":"106","num_nodes":"17","size_leaf_vector":"1"}},{"base_weights":[1.1062326E-2,-6.3903935E-2,4.118452E-2,2.4959867E-1,-2.9541308E-2,5.536092E-1,-1.0334634E-2,-1.68293E-1,1.0887718E-1,1.06880724E-1,8.039222E-3,-4.7049213E-2,3.3824924E-2,-2.5599017E-3,-8.308386E-2,8.781621E-2,-8.646759E-4],"categories":[],"categories_nodes":[],"categories_segments":[],"categories_sizes":[],"default_left":[0,0,0,0,0,0,0,0,0,0,0,0,0,0,0,0,0],"id":62,"left_children":[1,-1,3,5,7,9,11,13,15,-1,-1,-1,-1,-1,-1,-1,-1],"loss_changes":[2.6632292E0,0E0,2.340419E0,3.235847E0,2.2827826E0,2.9149241E0,2.6279392E0,4.4949446E0,4.3523793E0,0E0,0E0,0E0,0E0,0E0,0E0,0E0,0E0],"parents":[2147483647,0,0,2,2,3,3,4,4,5,5,6,6,7,7,8,8],"right_children":[2,-1,4,6,8,10,12,14,16,-1,-1,-1,-1,-1,-1,-1,-1],"split_conditions":[-1.2908564E0,-6.3903935E-2,-6.700967E-1,-8.7663546E-2,1.4319386E-1,1.1024545E-1,-2.4874486E-2,-1.296763E-1,-5.3638303E-1,1.06880724E-1,8.039222E-3,-4.7049213E-2,3.3824924E-2,-2.5599017E-3,-8.308386E-2,8.781621E-2,-8.646759E-4],"split_indices":[22,0,88,76,55,68,77,55,43,0,0,0,0,0,0,0,0],"split_type":[0,0,0,0,0,0,0,0,0,0,0,0,0,0,0,0,0],"sum_hessian":[1.6330843E2,7.524258E0,1.5578416E2,3.9188553E1,1.1659561E2,1.7719378E1,2.1469173E1,5.8480732E1,5.8114883E1,9.856349E0,7.8630285E0,9.308714E0,1.216046E1,4.6634888E1,1.1845842E1,8.430796E0,4.9684086E1],"tree_param":{"num_deleted":"0","num_feature":"106","num_nodes":"17","size_leaf_vector":"1"}},{"base_weights":[-3.2022845E-2,2.6284793E-2,-3.4646088E-1,-2.6104575E-1,1.24410145E-1,-9.429463E-2,-9.199057E-2,-4.505118E-1,3.271642E-2,4.3424177E-1,3.0957745E-2,-4.431563E-2,2.9201413E-2,-8.307128E-2,5.6581064E-3,8.076473E-2,-0E0,-2.647044E-2,1.7465206E-2],"categories":[],"categories_nodes":[],"categories_segments":[],"categories_sizes":[],"default_left":[0,0,0,0,0,0,0,0,0,0,0,0,0,0,0,0,0,0,0],"id":63,"left_children":[1,3,5,7,9,-1,11,13,-1,15,17,-1,-1,-1,-1,-1,-1,-1,-1],"loss_changes":[3.018205E0,3.8994849E0,2.717488E0,3.6899648E0,2.9379148E0,0E0,1.7368127E0,3.2758083E0,0E0,2.421947E0,2.35554E0,0E0,0E0,0E0,0E0,0E0,0E0,0E0,0E0],"parents":[2147483647,0,0,1,1,2,2,3,3,4,4,6,6,7,7,9,9,10,10],"right_children":[2,4,6,8,10,-1,12,14,-1,16,18,-1,-1,-1,-1,-1,-1,-1,-1],"split_conditions":[8.135936E-1,-5.668004E-1,-5.675617E-1,8.69426E-2,-1.5054724E-1,-9.429463E-2,1.1845893E0,-3.8497263E-1,3.271642E-2,2.6339066E-1,-6.184764E-2,-4.431563E-2,2.9201413E-2,-8.307128E-2,5.6581064E-3,8.076473E-2,-0E0,-2.647044E-2,1.7465206E-2],"split_indices":[21,68,22,42,68,0,55,6,0,42,14,0,0,0,0,0,0,0,0],"split_type":[0,0,0,0,0,0,0,0,0,0,0,0,0,0,0,0,0,0,0],"sum_hessian":[1.6137907E2,1.3663974E2,2.4739334E1,3.410222E1,1.0253752E2,8.163914E0,1.657542E1,2.5420683E1,8.681537E0,2.2667866E1,7.986965E1,9.180513E0,7.3949065E0,1.6981514E1,8.439168E0,1.4199055E1,8.46881E0,2.4433683E1,5.5435974E1],"tree_param":{"num_deleted":"0","num_feature":"106","num_nodes":"19","size_leaf_vector":"1"}},{"base_weights":[2.4444943E-2,-5.6607798E-2,5.2565757E-2,-1.0889287E-1,1.434964E-1,1.3302763E-1,-3.2585123E-1,2.6475054E-1,-5.74722E-2,3.7251428E-2,-3.4016386E-2,5.3148507E-3,-7.6953046E-2,1.3374459E-2,1.2477247E-1,-4.3170873E-2,4.235627E-2],"categories":[],"categories_nodes":[],"categories_segments":[],"categories_sizes":[],"default_left":[0,0,0,0,0,0,0,0,0,0,0,0,0,0,0,0,0],"id":64,"left_children":[1,-1,3,5,7,9,11,13,15,-1,-1,-1,-1,-1,-1,-1,-1],"loss_changes":[2.2642891E0,0E0,2.3068905E0,3.0183744E0,2.4853082E0,2.0943315E0,3.6136038E0,7.275171E0,4.8839474E0,0E0,0E0,0E0,0E0,0E0,0E0,0E0,0E0],"parents":[2147483647,0,0,2,2,3,3,4,4,5,5,6,6,7,7,8,8],"right_children":[2,-1,4,6,8,10,12,14,16,-1,-1,-1,-1,-1,-1,-1,-1],"split_conditions":[-1.632025E0,-5.6607798E-2,-4.3729693E-1,-5.0040454E-1,2.4886876E-1,2.650734E-1,-3.3678514E-1,5.7260968E-2,8.27591E-1,3.7251428E-2,-3.4016386E-2,5.3148507E-3,-7.6953046E-2,1.3374459E-2,1.2477247E-1,-4.3170873E-2,4.235627E-2],"split_indices":[70,0,51,52,76,68,63,76,76,0,0,0,0,0,0,0,0],"split_type":[0,0,0,0,0,0,0,0,0,0,0,0,0,0,0,0,0],"sum_hessian":[1.62508E2,7.6793175E0,1.5482869E2,5.5314194E1,9.951449E1,2.6117586E1,2.919661E1,6.2179054E1,3.7335434E1,1.8663088E1,7.454499E0,1.3682785E1,1.5513824E1,5.2973824E1,9.205231E0,2.1711958E1,1.5623475E1],"tree_param":{"num_deleted":"0","num_feature":"106","num_nodes":"17","size_leaf_vector":"1"}},{"base_weights":[-4.4577003E-2,2.903346E-1,-8.400025E-2,8.199377E-2,-1.0055764E-2,-7.402374E-2,-4.5318335E-2,1.0222861E-1,-1.5778325E-1,2.602202E-2,-4.620583E-2,-4.359427E-2,6.1724302E-3],"categories":[],"categories_nodes":[],"categories_segments":[],"categories_sizes":[],"default_left":[0,0,0,0,0,0,0,0,0,0,0,0,0],"id":65,"left_children":[1,3,5,-1,-1,-1,7,9,11,-1,-1,-1,-1],"loss_changes":[2.137618E0,2.6132007E0,2.907747E0,0E0,0E0,0E0,2.2956328E0,3.3896348E0,3.4267285E0,0E0,0E0,0E0,0E0],"parents":[2147483647,0,0,1,1,2,2,6,6,7,7,8,8],"right_children":[2,4,6,-1,-1,-1,8,10,12,-1,-1,-1,-1],"split_conditions":[-9.6437585E-1,-1.296763E-1,-7.8980523E-1,8.199377E-2,-1.0055764E-2,-7.402374E-2,-6.9403656E-2,1.2181227E0,-4.4748196E-3,2.602202E-2,-4.620583E-2,-4.359427E-2,6.1724302E-3],"split_indices":[39,55,43,0,0,0,70,78,4,0,0,0,0],"split_type":[0,0,0,0,0,0,0,0,0,0,0,0,0],"sum_hessian":[1.6061586E2,1.5977908E1,1.4463795E2,7.520352E0,8.457556E0,8.602438E0,1.360355E2,5.849525E1,7.754026E1,4.7971237E1,1.0524013E1,3.8987324E1,3.8552937E1],"tree_param":{"num_deleted":"0","num_feature":"106","num_nodes":"13","size_leaf_vector":"1"}},{"base_weights":[2.0233644E-2,-5.269365E-2,5.8994282E-2,2.5088437E-2,6.727659E-2,2.107257E-1,-9.763847E-2,3.6699243E-2,-2.646241E-2,-2.1963425E-2,3.9103825E-2],"categories":[],"categories_nodes":[],"categories_segments":[],"categories_sizes":[],"default_left":[0,0,0,0,0,0,0,0,0,0,0],"id":66,"left_children":[1,-1,3,5,-1,7,9,-1,-1,-1,-1],"loss_changes":[2.9004204E0,0E0,2.5115879E0,3.3023458E0,0E0,2.445361E0,3.1834881E0,0E0,0E0,0E0,0E0],"parents":[2147483647,0,0,2,2,3,3,5,5,6,6],"right_children":[2,-1,4,6,-1,8,10,-1,-1,-1,-1],"split_conditions":[-1.3669767E0,-5.269365E-2,1.65313E0,-5.215068E-1,6.727659E-2,5.92659E-1,1.1354522E0,3.6699243E-2,-2.646241E-2,-2.1963425E-2,3.9103825E-2],"split_indices":[72,0,26,88,0,34,17,0,0,0,0],"split_type":[0,0,0,0,0,0,0,0,0,0,0],"sum_hessian":[1.6258286E2,1.1646995E1,1.5093587E2,1.4255032E2,8.385541E0,5.6773006E1,8.577731E1,4.694343E1,9.829576E0,7.2053314E1,1.3723997E1],"tree_param":{"num_deleted":"0","num_feature":"106","num_nodes":"11","size_leaf_vector":"1"}},{"base_weights":[1.7022688E-3,3.9728634E-2,-4.8307136E-2,6.081302E-2,5.124081E-3,-5.7908133E-2,3.6831316E-2,6.477277E-2,-2.6240824E-3],"categories":[],"categories_nodes":[],"categories_segments":[],"categories_sizes":[],"default_left":[0,0,0,0,0,0,0,0,0],"id":67,"left_children":[1,3,-1,-1,5,-1,7,-1,-1],"loss_changes":[2.4990335E0,2.385536E0,0E0,0E0,2.1647954E0,0E0,4.0253873E0,0E0,0E0],"parents":[2147483647,0,0,1,1,4,4,6,6],"right_children":[2,4,-1,-1,6,-1,8,-1,-1],"split_conditions":[1.6732612E0,-1.2021818E0,-4.8307136E-2,6.081302E-2,-1.5704516E0,-5.7908133E-2,-9.591917E-1,6.477277E-2,-2.6240824E-3],"split_indices":[33,52,0,0,70,0,70,0,0],"split_type":[0,0,0,0,0,0,0,0,0],"sum_hessian":[1.6288397E2,1.4993007E2,1.2953892E1,9.201798E0,1.4072827E2,7.5303245E0,1.3319795E2,1.3242401E1,1.1995555E2],"tree_param":{"num_deleted":"0","num_feature":"106","num_nodes":"9","size_leaf_vector":"1"}},{"base_weights":[2.8452852E-3,1.3291009E-1,-9.922732E-2,3.0330126E-3,5.70115E-1,-8.763624E-2,-3.4563083E-2,-2.8975195E-1,1.8309309E-1,1.05918616E-1,2.3088869E-2,-4.4980615E-1,7.799582E-2,-6.459121E-2,8.821989E-3,3.909353E-2,-3.95731E-2,-1.0368359E-2,-9.328641E-2,-2.4860088E-2,3.4566272E-2],"categories":[],"categories_nodes":[],"categories_segments":[],"categories_sizes":[],"default_left":[0,0,0,0,0,0,0,0,0,0,0,0,0,0,0,0,0,0,0,0,0],"id":68,"left_children":[1,3,5,7,9,-1,11,13,15,-1,-1,17,19,-1,-1,-1,-1,-1,-1,-1,-1],"loss_changes":[2.145509E0,3.993546E0,3.5705986E0,3.0055015E0,1.6307998E0,0E0,3.9432065E0,2.0340972E0,2.714191E0,0E0,0E0,1.9891672E0,4.0104346E0,0E0,0E0,0E0,0E0,0E0,0E0,0E0,0E0],"parents":[2147483647,0,0,1,1,2,2,3,3,4,4,6,6,7,7,8,8,11,11,12,12],"right_children":[2,4,6,8,10,-1,12,14,16,-1,-1,18,20,-1,-1,-1,-1,-1,-1,-1,-1],"split_conditions":[-5.660805E-1,-6.5125024E-1,-5.207509E-1,-3.5841542E-1,-2.8872988E-1,-8.763624E-2,-6.689137E-1,8.372853E-2,8.2575876E-1,1.05918616E-1,2.3088869E-2,-1.0571204E0,-5.95717E-1,-6.459121E-2,8.821989E-3,3.909353E-2,-3.95731E-2,-1.0368359E-2,-9.328641E-2,-2.4860088E-2,3.4566272E-2],"split_indices":[23,75,73,76,6,0,70,83,6,0,0,70,22,0,0,0,0,0,0,0,0],"split_type":[0,0,0,0,0,0,0,0,0,0,0,0,0,0,0,0,0,0,0,0,0],"sum_hessian":[1.5936037E2,7.036992E1,8.899045E1,5.520597E1,1.5163947E1,7.170593E0,8.1819855E1,2.0579044E1,3.4626926E1,7.42138E0,7.7425666E0,1.6999378E1,6.482047E1,1.2097108E1,8.481936E0,2.7528057E1,7.0988674E0,8.802885E0,8.196494E0,2.7298687E1,3.7521786E1],"tree_param":{"num_deleted":"0","num_feature":"106","num_nodes":"21","size_leaf_vector":"1"}},{"base_weights":[-1.1231528E-3,-6.2815614E-2,2.6385043E-2,1.6340077E-1,-9.513826E-2,-3.8256623E-2,2.4087027E-1,-2.2497289E-1,1.4106642E-1,6.4185716E-2,7.885952E-3,-6.0690236E-3,-6.62181E-2,4.2591568E-2,-5.279599E-2],"categories":[],"categories_nodes":[],"categories_segments":[],"categories_sizes":[],"default_left":[0,0,0,0,0,0,0,0,0,0,0,0,0,0,0],"id":69,"left_children":[1,-1,3,5,7,-1,9,11,13,-1,-1,-1,-1,-1,-1],"loss_changes":[2.3661625E0,0E0,2.57004E0,2.7838337E0,2.5344207E0,0E0,3.1678073E0,2.9410467E0,3.7749085E0,0E0,0E0,0E0,0E0,0E0,0E0],"parents":[2147483647,0,0,2,2,3,3,4,4,6,6,7,7,8,8],"right_children":[2,-1,4,6,8,-1,10,12,14,-1,-1,-1,-1,-1,-1],"split_conditions":[-1.632025E0,-6.2815614E-2,-4.24864E-2,-1.0844209E0,1.5313862E-1,-3.8256623E-2,-3.4418017E-1,3.1432462E-1,1.0370488E0,6.4185716E-2,7.885952E-3,-6.0690236E-3,-6.62181E-2,4.2591568E-2,-5.279599E-2],"split_indices":[70,0,72,22,55,0,25,26,9,0,0,0,0,0,0],"split_type":[0,0,0,0,0,0,0,0,0,0,0,0,0,0,0],"sum_hessian":[1.5925475E2,7.247187E0,1.5200755E2,7.167422E1,8.0333336E1,9.311164E0,6.2363056E1,5.2142876E1,2.819046E1,2.2302212E1,4.0060844E1,3.495323E1,1.7189644E1,2.101619E1,7.1742716E0],"tree_param":{"num_deleted":"0","num_feature":"106","num_nodes":"15","size_leaf_vector":"1"}},{"base_weights":[-2.9135305E-2,-0E0,-5.294067E-2,-4.51947E-2,3.665607E-1,-9.693824E-4,-6.530493E-2,9.106883E-2,-0E0,1.073176E-2,-3.404443E-2],"categories":[],"categories_nodes":[],"categories_segments":[],"categories_sizes":[],"default_left":[0,0,0,0,0,0,0,0,0,0,0],"id":70,"left_children":[1,3,-1,5,7,9,-1,-1,-1,-1,-1],"loss_changes":[1.9365016E0,2.5308514E0,0E0,2.9491544E0,2.4068773E0,3.2711892E0,0E0,0E0,0E0,0E0,0E0],"parents":[2147483647,0,0,1,1,3,3,4,4,5,5],"right_children":[2,4,-1,6,8,10,-1,-1,-1,-1,-1],"split_conditions":[1.6145539E0,1.0512859E0,-5.294067E-2,8.217374E-1,1.0525125E0,5.390766E-1,-6.530493E-2,9.106883E-2,-0E0,1.073176E-2,-3.404443E-2],"split_indices":[20,95,0,98,97,72,0,0,0,0,0],"split_type":[0,0,0,0,0,0,0,0,0,0,0],"sum_hessian":[1.6054767E2,1.508936E2,9.654074E0,1.3512752E2,1.5766072E1,1.2523118E2,9.896346E0,7.0905695E0,8.675503E0,9.514102E1,3.009015E1],"tree_param":{"num_deleted":"0","num_feature":"106","num_nodes":"11","size_leaf_vector":"1"}},{"base_weights":[-3.442062E-3,2.5944766E-2,-5.761855E-2,-2.2703143E-2,3.92794E-1,1.0011514E-1,-1.9007866E-1,-1.1209641E-2,8.736892E-2,-2.523356E-3,5.6465194E-2,-5.8044074E-3,-7.460484E-2],"categories":[],"categories_nodes":[],"categories_segments":[],"categories_sizes":[],"default_left":[0,0,0,0,0,0,0,0,0,0,0,0,0],"id":71,"left_children":[1,3,-1,5,7,9,11,-1,-1,-1,-1,-1,-1],"loss_changes":[2.306673E0,2.7577744E0,0E0,2.8004727E0,3.0798962E0,3.559493E0,3.4364157E0,0E0,0E0,0E0,0E0,0E0,0E0],"parents":[2147483647,0,0,1,1,3,3,4,4,5,5,6,6],"right_children":[2,4,-1,6,8,10,12,-1,-1,-1,-1,-1,-1],"split_conditions":[1.6145539E0,1.0512859E0,-5.761855E-2,7.922937E-3,6.0407836E-2,1.190228E-1,6.525496E-1,-1.1209641E-2,8.736892E-2,-2.523356E-3,5.6465194E-2,-5.8044074E-3,-7.460484E-2],"split_indices":[20,95,0,53,55,51,70,0,0,0,0,0,0],"split_type":[0,0,0,0,0,0,0,0,0,0,0,0,0],"sum_hessian":[1.595242E2,1.5095445E2,8.569745E0,1.3386777E2,1.7086693E1,7.709829E1,5.676947E1,7.1464214E0,9.940272E0,5.8605495E1,1.8492796E1,4.3749687E1,1.3019785E1],"tree_param":{"num_deleted":"0","num_feature":"106","num_nodes":"13","size_leaf_vector":"1"}},{"base_weights":[-1.50080295E-2,1.7880084E-2,-4.621262E-2,-3.1528313E-2,3.7833306E-1,7.839067E-2,-2.7680546E-1,8.407198E-2,7.7266074E-3,8.655028E-2,1.0363192E-3,-6.367115E-2,-6.4882415E-4],"categories":[],"categories_nodes":[],"categories_segments":[],"categories_sizes":[],"default_left":[0,0,0,0,0,0,0,0,0,0,0,0,0],"id":72,"left_children":[1,3,-1,5,7,9,11,-1,-1,-1,-1,-1,-1],"loss_changes":[1.967686E0,2.6447043E0,0E0,3.518822E0,1.6901133E0,3.9369364E0,2.7272348E0,0E0,0E0,0E0,0E0,0E0,0E0],"parents":[2147483647,0,0,1,1,3,3,4,4,5,5,6,6],"right_children":[2,4,-1,6,8,10,12,-1,-1,-1,-1,-1,-1],"split_conditions":[1.3870573E0,9.744662E-1,-4.621262E-2,-5.0958578E-2,-1.9124742E-1,-8.131227E-1,-4.52473E-1,8.407198E-2,7.7266074E-3,8.655028E-2,1.0363192E-3,-6.367115E-2,-6.4882415E-4],"split_indices":[70,22,0,85,8,67,55,0,0,0,0,0,0],"split_type":[0,0,0,0,0,0,0,0,0,0,0,0,0],"sum_hessian":[1.570767E2,1.4488336E2,1.2193346E1,1.2797635E2,1.6907007E1,8.8561104E1,3.941525E1,7.5779996E0,9.329008E0,7.61427E0,8.094683E1,1.9684546E1,1.9730703E1],"tree_param":{"num_deleted":"0","num_feature":"106","num_nodes":"13","size_leaf_vector":"1"}},{"base_weights":[3.2920619E-3,4.6349265E-2,-2.537684E-2,-4.5822177E-2,1.1947806E-2,5.0505955E-2,-4.3606162E-2,1.6681382E-2,-2.3455977E-2],"categories":[],"categories_nodes":[],"categories_segments":[],"categories_sizes":[],"default_left":[0,0,0,0,0,0,0,0,0],"id":73,"left_children":[1,-1,3,-1,5,7,-1,-1,-1],"loss_changes":[1.7808734E0,0E0,2.0069988E0,0E0,1.93261E0,2.6998725E0,0E0,0E0,0E0],"parents":[2147483647,0,0,2,2,4,4,5,5],"right_children":[2,-1,4,-1,6,8,-1,-1,-1],"split_conditions":[-1.2185032E0,4.6349265E-2,-1.0296613E0,-4.5822177E-2,1.3870573E0,2.6817432E-1,-4.3606162E-2,1.6681382E-2,-2.3455977E-2],"split_indices":[63,0,63,0,70,43,0,0,0],"split_type":[0,0,0,0,0,0,0,0,0],"sum_hessian":[1.5703036E2,1.0311223E1,1.4671915E2,1.3285228E1,1.3343391E2,1.220296E2,1.1404312E1,9.035835E1,3.1671253E1],"tree_param":{"num_deleted":"0","num_feature":"106","num_nodes":"9","size_leaf_vector":"1"}},{"base_weights":[-6.9764517E-3,4.227658E-2,-4.098463E-2,-1.8940143E-1,7.805453E-2,-8.489267E-2,-9.831037E-2,3.252957E-1,-1.010995E-1,-2.3956003E-2,4.3144483E-2,3.8750502E-3,6.622961E-2,4.9907327E-2,-2.4362074E-2],"categories":[],"categories_nodes":[],"categories_segments":[],"categories_sizes":[],"default_left":[0,0,0,0,0,0,0,0,0,0,0,0,0,0,0],"id":74,"left_children":[1,-1,3,5,7,9,-1,11,13,-1,-1,-1,-1,-1,-1],"loss_changes":[1.9182278E0,0E0,2.6021166E0,4.155895E0,3.6542494E0,2.987268E0,0E0,2.2218492E0,2.5733848E0,0E0,0E0,0E0,0E0,0E0,0E0],"parents":[2147483647,0,0,2,2,3,3,4,4,5,5,7,7,8,8],"right_children":[2,-1,4,6,8,10,-1,12,14,-1,-1,-1,-1,-1,-1],"split_conditions":[-1.0939807E0,4.227658E-2,-1.1042481E-1,1.0392226E0,6.59075E-1,4.8884445E-1,-9.831037E-2,-5.531942E-1,-3.0228589E-2,-2.3956003E-2,4.3144483E-2,3.8750502E-3,6.622961E-2,4.9907327E-2,-2.4362074E-2],"split_indices":[21,0,9,4,97,52,0,22,12,0,0,0,0,0,0],"split_type":[0,0,0,0,0,0,0,0,0,0,0,0,0,0,0],"sum_hessian":[1.5735991E2,1.2543501E1,1.448164E2,6.456562E1,8.025078E1,5.648658E1,8.079042E0,3.360992E1,4.6640858E1,4.551227E1,1.097431E1,1.5348704E1,1.8261217E1,7.0115933E0,3.9629265E1],"tree_param":{"num_deleted":"0","num_feature":"106","num_nodes":"15","size_leaf_vector":"1"}},{"base_weights":[-3.778424E-2,1.936806E-1,-9.749933E-2,7.829194E-2,-1.5945274E-2,-1.6911958E-1,2.0655291E-1,-3.8731482E-2,4.488655E-2,